digraph Tree {
node [shape=box] ;
0 [label="X[30] <= 0.5\ngini = 0.4781\nsamples = 46997\nvalue = [294, 733, 581, 1181, 2504, 1230, 1376, 404, 110, 33368, 5216]"] ;
1 [label="X[31] <= 0.5\ngini = 0.4844\nsamples = 45132\nvalue = [290, 700, 562, 1162, 2440, 1207, 1344, 397, 107, 31819, 5104]"] ;
0 -> 1 [labeldistance=2.5, labelangle=45, headlabel="True"] ;
2 [label="X[54] <= 23.5\ngini = 0.4777\nsamples = 41590\nvalue = [264, 634, 507, 1071, 2194, 1101, 1223, 359, 96, 29543, 4598]"] ;
1 -> 2 ;
3 [label="X[53] <= 7.5\ngini = 0.5764\nsamples = 2321\nvalue = [9, 33, 37, 104, 180, 87, 108, 27, 7, 1465, 264]"] ;
2 -> 3 ;
4 [label="X[54] <= 19.5\ngini = 0.4929\nsamples = 967\nvalue = [4, 16, 14, 34, 59, 25, 32, 8, 3, 677, 95]"] ;
3 -> 4 ;
5 [label="X[50] <= 6.5\ngini = 0.5955\nsamples = 226\nvalue = [1, 9, 3, 9, 17, 5, 13, 2, 2, 139, 26]"] ;
4 -> 5 ;
6 [label="X[23] <= 0.5\ngini = 0.6433\nsamples = 162\nvalue = [0, 7, 2, 8, 15, 2, 12, 2, 2, 92, 20]"] ;
5 -> 6 ;
7 [label="X[51] <= 0.5\ngini = 0.6125\nsamples = 144\nvalue = [0, 6, 2, 7, 13, 1, 7, 2, 2, 86, 18]"] ;
6 -> 7 ;
8 [label="X[53] <= 5.5\ngini = 0.7424\nsamples = 25\nvalue = [0, 1, 1, 3, 5, 0, 1, 1, 1, 11, 1]"] ;
7 -> 8 ;
9 [label="X[48] <= 2011.5\ngini = 0.8033\nsamples = 19\nvalue = [0, 1, 1, 2, 5, 0, 1, 1, 1, 6, 1]"] ;
8 -> 9 ;
10 [label="gini = 0.5\nsamples = 2\nvalue = [0, 1, 0, 0, 0, 0, 0, 1, 0, 0, 0]"] ;
9 -> 10 ;
11 [label="gini = 0.7612\nsamples = 17\nvalue = [0, 0, 1, 2, 5, 0, 1, 0, 1, 6, 1]"] ;
9 -> 11 ;
12 [label="X[54] <= 18.5\ngini = 0.2778\nsamples = 6\nvalue = [0, 0, 0, 1, 0, 0, 0, 0, 0, 5, 0]"] ;
8 -> 12 ;
13 [label="gini = 0.0\nsamples = 1\nvalue = [0, 0, 0, 1, 0, 0, 0, 0, 0, 0, 0]"] ;
12 -> 13 ;
14 [label="gini = 0.0\nsamples = 5\nvalue = [0, 0, 0, 0, 0, 0, 0, 0, 0, 5, 0]"] ;
12 -> 14 ;
15 [label="X[48] <= 2013.5\ngini = 0.5721\nsamples = 119\nvalue = [0, 5, 1, 4, 8, 1, 6, 1, 1, 75, 17]"] ;
7 -> 15 ;
16 [label="X[53] <= 1.5\ngini = 0.6556\nsamples = 28\nvalue = [0, 0, 1, 0, 2, 1, 2, 0, 0, 14, 8]"] ;
15 -> 16 ;
17 [label="gini = 0.32\nsamples = 5\nvalue = [0, 0, 0, 0, 1, 0, 0, 0, 0, 0, 4]"] ;
16 -> 17 ;
18 [label="gini = 0.586\nsamples = 23\nvalue = [0, 0, 1, 0, 1, 1, 2, 0, 0, 14, 4]"] ;
16 -> 18 ;
19 [label="X[7] <= 0.5\ngini = 0.5294\nsamples = 91\nvalue = [0, 5, 0, 4, 6, 0, 4, 1, 1, 61, 9]"] ;
15 -> 19 ;
20 [label="gini = 0.5202\nsamples = 90\nvalue = [0, 5, 0, 4, 5, 0, 4, 1, 1, 61, 9]"] ;
19 -> 20 ;
21 [label="gini = 0.0\nsamples = 1\nvalue = [0, 0, 0, 0, 1, 0, 0, 0, 0, 0, 0]"] ;
19 -> 21 ;
22 [label="X[47] <= 2012.5\ngini = 0.7778\nsamples = 18\nvalue = [0, 1, 0, 1, 2, 1, 5, 0, 0, 6, 2]"] ;
6 -> 22 ;
23 [label="gini = 0.0\nsamples = 3\nvalue = [0, 0, 0, 0, 0, 0, 3, 0, 0, 0, 0]"] ;
22 -> 23 ;
24 [label="X[52] <= 4.5\ngini = 0.7733\nsamples = 15\nvalue = [0, 1, 0, 1, 2, 1, 2, 0, 0, 6, 2]"] ;
22 -> 24 ;
25 [label="X[36] <= 0.5\ngini = 0.7101\nsamples = 13\nvalue = [0, 0, 0, 1, 2, 0, 2, 0, 0, 6, 2]"] ;
24 -> 25 ;
26 [label="gini = 0.6806\nsamples = 12\nvalue = [0, 0, 0, 1, 2, 0, 1, 0, 0, 6, 2]"] ;
25 -> 26 ;
27 [label="gini = 0.0\nsamples = 1\nvalue = [0, 0, 0, 0, 0, 0, 1, 0, 0, 0, 0]"] ;
25 -> 27 ;
28 [label="X[51] <= 5.5\ngini = 0.5\nsamples = 2\nvalue = [0, 1, 0, 0, 0, 1, 0, 0, 0, 0, 0]"] ;
24 -> 28 ;
29 [label="gini = 0.0\nsamples = 1\nvalue = [0, 1, 0, 0, 0, 0, 0, 0, 0, 0, 0]"] ;
28 -> 29 ;
30 [label="gini = 0.0\nsamples = 1\nvalue = [0, 0, 0, 0, 0, 1, 0, 0, 0, 0, 0]"] ;
28 -> 30 ;
31 [label="X[12] <= 0.5\ngini = 0.4468\nsamples = 64\nvalue = [1, 2, 1, 1, 2, 3, 1, 0, 0, 47, 6]"] ;
5 -> 31 ;
32 [label="X[36] <= 0.5\ngini = 0.4298\nsamples = 63\nvalue = [1, 1, 1, 1, 2, 3, 1, 0, 0, 47, 6]"] ;
31 -> 32 ;
33 [label="X[54] <= 18.5\ngini = 0.4142\nsamples = 62\nvalue = [1, 1, 1, 1, 2, 3, 1, 0, 0, 47, 5]"] ;
32 -> 33 ;
34 [label="X[51] <= 2.5\ngini = 0.5578\nsamples = 31\nvalue = [0, 1, 1, 1, 1, 2, 1, 0, 0, 20, 4]"] ;
33 -> 34 ;
35 [label="gini = 0.5382\nsamples = 24\nvalue = [0, 1, 1, 1, 1, 2, 1, 0, 0, 16, 1]"] ;
34 -> 35 ;
36 [label="gini = 0.4898\nsamples = 7\nvalue = [0, 0, 0, 0, 0, 0, 0, 0, 0, 4, 3]"] ;
34 -> 36 ;
37 [label="X[49] <= 10.5\ngini = 0.2373\nsamples = 31\nvalue = [1, 0, 0, 0, 1, 1, 0, 0, 0, 27, 1]"] ;
33 -> 37 ;
38 [label="gini = 0.1563\nsamples = 24\nvalue = [0, 0, 0, 0, 0, 1, 0, 0, 0, 22, 1]"] ;
37 -> 38 ;
39 [label="gini = 0.449\nsamples = 7\nvalue = [1, 0, 0, 0, 1, 0, 0, 0, 0, 5, 0]"] ;
37 -> 39 ;
40 [label="gini = 0.0\nsamples = 1\nvalue = [0, 0, 0, 0, 0, 0, 0, 0, 0, 0, 1]"] ;
32 -> 40 ;
41 [label="gini = 0.0\nsamples = 1\nvalue = [0, 1, 0, 0, 0, 0, 0, 0, 0, 0, 0]"] ;
31 -> 41 ;
42 [label="X[17] <= 0.5\ngini = 0.4581\nsamples = 741\nvalue = [3, 7, 11, 25, 42, 20, 19, 6, 1, 538, 69]"] ;
4 -> 42 ;
43 [label="X[15] <= 0.5\ngini = 0.3432\nsamples = 298\nvalue = [1, 1, 4, 7, 10, 8, 3, 1, 1, 240, 22]"] ;
42 -> 43 ;
44 [label="X[49] <= 1.5\ngini = 0.3389\nsamples = 297\nvalue = [1, 1, 3, 7, 10, 8, 3, 1, 1, 240, 22]"] ;
43 -> 44 ;
45 [label="X[54] <= 22.5\ngini = 0.608\nsamples = 25\nvalue = [1, 0, 1, 1, 2, 3, 0, 0, 0, 15, 2]"] ;
44 -> 45 ;
46 [label="X[51] <= 4.5\ngini = 0.3601\nsamples = 19\nvalue = [0, 0, 1, 0, 0, 2, 0, 0, 0, 15, 1]"] ;
45 -> 46 ;
47 [label="gini = 0.2266\nsamples = 16\nvalue = [0, 0, 1, 0, 0, 0, 0, 0, 0, 14, 1]"] ;
46 -> 47 ;
48 [label="gini = 0.4444\nsamples = 3\nvalue = [0, 0, 0, 0, 0, 2, 0, 0, 0, 1, 0]"] ;
46 -> 48 ;
49 [label="X[53] <= 1.5\ngini = 0.7778\nsamples = 6\nvalue = [1, 0, 0, 1, 2, 1, 0, 0, 0, 0, 1]"] ;
45 -> 49 ;
50 [label="gini = 0.4444\nsamples = 3\nvalue = [0, 0, 0, 1, 2, 0, 0, 0, 0, 0, 0]"] ;
49 -> 50 ;
51 [label="gini = 0.6667\nsamples = 3\nvalue = [1, 0, 0, 0, 0, 1, 0, 0, 0, 0, 1]"] ;
49 -> 51 ;
52 [label="X[16] <= 0.5\ngini = 0.3084\nsamples = 272\nvalue = [0, 1, 2, 6, 8, 5, 3, 1, 1, 225, 20]"] ;
44 -> 52 ;
53 [label="X[50] <= 11.5\ngini = 0.3038\nsamples = 271\nvalue = [0, 1, 2, 6, 8, 5, 3, 1, 1, 225, 19]"] ;
52 -> 53 ;
54 [label="gini = 0.2968\nsamples = 249\nvalue = [0, 1, 2, 6, 8, 5, 3, 1, 1, 208, 14]"] ;
53 -> 54 ;
55 [label="gini = 0.3512\nsamples = 22\nvalue = [0, 0, 0, 0, 0, 0, 0, 0, 0, 17, 5]"] ;
53 -> 55 ;
56 [label="gini = 0.0\nsamples = 1\nvalue = [0, 0, 0, 0, 0, 0, 0, 0, 0, 0, 1]"] ;
52 -> 56 ;
57 [label="gini = 0.0\nsamples = 1\nvalue = [0, 0, 1, 0, 0, 0, 0, 0, 0, 0, 0]"] ;
43 -> 57 ;
58 [label="X[3] <= 0.5\ngini = 0.5267\nsamples = 443\nvalue = [2, 6, 7, 18, 32, 12, 16, 5, 0, 298, 47]"] ;
42 -> 58 ;
59 [label="X[13] <= 0.5\ngini = 0.5197\nsamples = 439\nvalue = [2, 6, 7, 18, 30, 12, 16, 5, 0, 298, 45]"] ;
58 -> 59 ;
60 [label="X[36] <= 0.5\ngini = 0.4552\nsamples = 203\nvalue = [1, 3, 3, 5, 12, 4, 9, 2, 0, 148, 16]"] ;
59 -> 60 ;
61 [label="X[11] <= 0.5\ngini = 0.4504\nsamples = 202\nvalue = [1, 3, 3, 5, 11, 4, 9, 2, 0, 148, 16]"] ;
60 -> 61 ;
62 [label="gini = 0.4457\nsamples = 201\nvalue = [1, 3, 3, 5, 11, 4, 9, 2, 0, 148, 15]"] ;
61 -> 62 ;
63 [label="gini = 0.0\nsamples = 1\nvalue = [0, 0, 0, 0, 0, 0, 0, 0, 0, 0, 1]"] ;
61 -> 63 ;
64 [label="gini = 0.0\nsamples = 1\nvalue = [0, 0, 0, 0, 1, 0, 0, 0, 0, 0, 0]"] ;
60 -> 64 ;
65 [label="X[25] <= 1.5\ngini = 0.5694\nsamples = 236\nvalue = [1, 3, 4, 13, 18, 8, 7, 3, 0, 150, 29]"] ;
59 -> 65 ;
66 [label="X[53] <= 0.5\ngini = 0.4411\nsamples = 76\nvalue = [0, 0, 1, 3, 5, 2, 2, 0, 0, 56, 7]"] ;
65 -> 66 ;
67 [label="gini = 0.6111\nsamples = 12\nvalue = [0, 0, 0, 1, 0, 1, 2, 0, 0, 7, 1]"] ;
66 -> 67 ;
68 [label="gini = 0.3975\nsamples = 64\nvalue = [0, 0, 1, 2, 5, 1, 0, 0, 0, 49, 6]"] ;
66 -> 68 ;
69 [label="X[25] <= 2.5\ngini = 0.622\nsamples = 160\nvalue = [1, 3, 3, 10, 13, 6, 5, 3, 0, 94, 22]"] ;
65 -> 69 ;
70 [label="gini = 0.6932\nsamples = 99\nvalue = [0, 2, 2, 9, 11, 6, 1, 2, 0, 50, 16]"] ;
69 -> 70 ;
71 [label="gini = 0.4633\nsamples = 61\nvalue = [1, 1, 1, 1, 2, 0, 4, 1, 0, 44, 6]"] ;
69 -> 71 ;
72 [label="X[51] <= 2.5\ngini = 0.5\nsamples = 4\nvalue = [0, 0, 0, 0, 2, 0, 0, 0, 0, 0, 2]"] ;
58 -> 72 ;
73 [label="gini = 0.0\nsamples = 2\nvalue = [0, 0, 0, 0, 0, 0, 0, 0, 0, 0, 2]"] ;
72 -> 73 ;
74 [label="gini = 0.0\nsamples = 2\nvalue = [0, 0, 0, 0, 2, 0, 0, 0, 0, 0, 0]"] ;
72 -> 74 ;
75 [label="X[53] <= 15.5\ngini = 0.6291\nsamples = 1354\nvalue = [5, 17, 23, 70, 121, 62, 76, 19, 4, 788, 169]"] ;
3 -> 75 ;
76 [label="X[53] <= 9.5\ngini = 0.7249\nsamples = 297\nvalue = [3, 4, 6, 19, 32, 18, 24, 2, 3, 141, 45]"] ;
75 -> 76 ;
77 [label="X[23] <= 0.5\ngini = 0.6149\nsamples = 108\nvalue = [1, 1, 2, 2, 12, 6, 6, 0, 1, 64, 13]"] ;
76 -> 77 ;
78 [label="X[6] <= 0.5\ngini = 0.5989\nsamples = 104\nvalue = [1, 1, 2, 2, 12, 6, 3, 0, 1, 63, 13]"] ;
77 -> 78 ;
79 [label="X[50] <= 8.5\ngini = 0.5672\nsamples = 90\nvalue = [1, 0, 1, 1, 8, 6, 3, 0, 1, 57, 12]"] ;
78 -> 79 ;
80 [label="X[50] <= 5.5\ngini = 0.6107\nsamples = 68\nvalue = [1, 0, 0, 1, 6, 6, 2, 0, 1, 40, 11]"] ;
79 -> 80 ;
81 [label="gini = 0.5389\nsamples = 49\nvalue = [1, 0, 0, 1, 2, 3, 2, 0, 0, 32, 8]"] ;
80 -> 81 ;
82 [label="gini = 0.7258\nsamples = 19\nvalue = [0, 0, 0, 0, 4, 3, 0, 0, 1, 8, 3]"] ;
80 -> 82 ;
83 [label="X[18] <= 0.5\ngini = 0.3884\nsamples = 22\nvalue = [0, 0, 1, 0, 2, 0, 1, 0, 0, 17, 1]"] ;
79 -> 83 ;
84 [label="gini = 0.3311\nsamples = 21\nvalue = [0, 0, 1, 0, 2, 0, 0, 0, 0, 17, 1]"] ;
83 -> 84 ;
85 [label="gini = 0.0\nsamples = 1\nvalue = [0, 0, 0, 0, 0, 0, 1, 0, 0, 0, 0]"] ;
83 -> 85 ;
86 [label="X[0] <= 0.5\ngini = 0.7143\nsamples = 14\nvalue = [0, 1, 1, 1, 4, 0, 0, 0, 0, 6, 1]"] ;
78 -> 86 ;
87 [label="X[17] <= 0.5\ngini = 0.5714\nsamples = 7\nvalue = [0, 0, 0, 1, 4, 0, 0, 0, 0, 2, 0]"] ;
86 -> 87 ;
88 [label="gini = 0.625\nsamples = 4\nvalue = [0, 0, 0, 1, 1, 0, 0, 0, 0, 2, 0]"] ;
87 -> 88 ;
89 [label="gini = 0.0\nsamples = 3\nvalue = [0, 0, 0, 0, 3, 0, 0, 0, 0, 0, 0]"] ;
87 -> 89 ;
90 [label="X[54] <= 20.5\ngini = 0.6122\nsamples = 7\nvalue = [0, 1, 1, 0, 0, 0, 0, 0, 0, 4, 1]"] ;
86 -> 90 ;
91 [label="gini = 0.32\nsamples = 5\nvalue = [0, 0, 0, 0, 0, 0, 0, 0, 0, 4, 1]"] ;
90 -> 91 ;
92 [label="gini = 0.5\nsamples = 2\nvalue = [0, 1, 1, 0, 0, 0, 0, 0, 0, 0, 0]"] ;
90 -> 92 ;
93 [label="X[46] <= 0.5\ngini = 0.375\nsamples = 4\nvalue = [0, 0, 0, 0, 0, 0, 3, 0, 0, 1, 0]"] ;
77 -> 93 ;
94 [label="gini = 0.0\nsamples = 3\nvalue = [0, 0, 0, 0, 0, 0, 3, 0, 0, 0, 0]"] ;
93 -> 94 ;
95 [label="gini = 0.0\nsamples = 1\nvalue = [0, 0, 0, 0, 0, 0, 0, 0, 0, 1, 0]"] ;
93 -> 95 ;
96 [label="X[12] <= 0.5\ngini = 0.7719\nsamples = 189\nvalue = [2, 3, 4, 17, 20, 12, 18, 2, 2, 77, 32]"] ;
76 -> 96 ;
97 [label="X[50] <= 10.5\ngini = 0.7587\nsamples = 182\nvalue = [2, 3, 2, 15, 18, 12, 18, 2, 1, 77, 32]"] ;
96 -> 97 ;
98 [label="X[51] <= 0.5\ngini = 0.7493\nsamples = 172\nvalue = [2, 3, 2, 15, 14, 10, 17, 2, 1, 75, 31]"] ;
97 -> 98 ;
99 [label="X[54] <= 22.5\ngini = 0.8\nsamples = 25\nvalue = [2, 0, 0, 3, 0, 1, 6, 1, 0, 7, 5]"] ;
98 -> 99 ;
100 [label="gini = 0.7656\nsamples = 16\nvalue = [2, 0, 0, 0, 0, 1, 6, 1, 0, 3, 3]"] ;
99 -> 100 ;
101 [label="gini = 0.642\nsamples = 9\nvalue = [0, 0, 0, 3, 0, 0, 0, 0, 0, 4, 2]"] ;
99 -> 101 ;
102 [label="X[17] <= 0.5\ngini = 0.729\nsamples = 147\nvalue = [0, 3, 2, 12, 14, 9, 11, 1, 1, 68, 26]"] ;
98 -> 102 ;
103 [label="gini = 0.6435\nsamples = 63\nvalue = [0, 0, 1, 6, 1, 3, 4, 0, 0, 34, 14]"] ;
102 -> 103 ;
104 [label="gini = 0.773\nsamples = 84\nvalue = [0, 3, 1, 6, 13, 6, 7, 1, 1, 34, 12]"] ;
102 -> 104 ;
105 [label="X[52] <= 1.5\ngini = 0.74\nsamples = 10\nvalue = [0, 0, 0, 0, 4, 2, 1, 0, 0, 2, 1]"] ;
97 -> 105 ;
106 [label="X[2] <= 0.5\ngini = 0.48\nsamples = 5\nvalue = [0, 0, 0, 0, 3, 0, 0, 0, 0, 2, 0]"] ;
105 -> 106 ;
107 [label="gini = 0.0\nsamples = 2\nvalue = [0, 0, 0, 0, 2, 0, 0, 0, 0, 0, 0]"] ;
106 -> 107 ;
108 [label="gini = 0.4444\nsamples = 3\nvalue = [0, 0, 0, 0, 1, 0, 0, 0, 0, 2, 0]"] ;
106 -> 108 ;
109 [label="X[49] <= 11.5\ngini = 0.72\nsamples = 5\nvalue = [0, 0, 0, 0, 1, 2, 1, 0, 0, 0, 1]"] ;
105 -> 109 ;
110 [label="gini = 0.0\nsamples = 2\nvalue = [0, 0, 0, 0, 0, 2, 0, 0, 0, 0, 0]"] ;
109 -> 110 ;
111 [label="gini = 0.6667\nsamples = 3\nvalue = [0, 0, 0, 0, 1, 0, 1, 0, 0, 0, 1]"] ;
109 -> 111 ;
112 [label="X[50] <= 5.0\ngini = 0.7347\nsamples = 7\nvalue = [0, 0, 2, 2, 2, 0, 0, 0, 1, 0, 0]"] ;
96 -> 112 ;
113 [label="X[2] <= 0.5\ngini = 0.5\nsamples = 4\nvalue = [0, 0, 2, 2, 0, 0, 0, 0, 0, 0, 0]"] ;
112 -> 113 ;
114 [label="gini = 0.0\nsamples = 2\nvalue = [0, 0, 0, 2, 0, 0, 0, 0, 0, 0, 0]"] ;
113 -> 114 ;
115 [label="gini = 0.0\nsamples = 2\nvalue = [0, 0, 2, 0, 0, 0, 0, 0, 0, 0, 0]"] ;
113 -> 115 ;
116 [label="X[52] <= 1.0\ngini = 0.4444\nsamples = 3\nvalue = [0, 0, 0, 0, 2, 0, 0, 0, 1, 0, 0]"] ;
112 -> 116 ;
117 [label="gini = 0.0\nsamples = 1\nvalue = [0, 0, 0, 0, 0, 0, 0, 0, 1, 0, 0]"] ;
116 -> 117 ;
118 [label="gini = 0.0\nsamples = 2\nvalue = [0, 0, 0, 0, 2, 0, 0, 0, 0, 0, 0]"] ;
116 -> 118 ;
119 [label="X[22] <= 3.5\ngini = 0.5973\nsamples = 1057\nvalue = [2, 13, 17, 51, 89, 44, 52, 17, 1, 647, 124]"] ;
75 -> 119 ;
120 [label="X[28] <= 2.0\ngini = 0.6206\nsamples = 911\nvalue = [2, 11, 15, 47, 82, 40, 49, 17, 1, 538, 109]"] ;
119 -> 120 ;
121 [label="X[26] <= 0.5\ngini = 0.6191\nsamples = 909\nvalue = [2, 11, 15, 47, 82, 38, 49, 17, 1, 538, 109]"] ;
120 -> 121 ;
122 [label="X[12] <= 0.5\ngini = 0.6163\nsamples = 905\nvalue = [2, 11, 15, 46, 80, 38, 48, 17, 1, 538, 109]"] ;
121 -> 122 ;
123 [label="X[35] <= 0.5\ngini = 0.6081\nsamples = 870\nvalue = [2, 11, 14, 43, 75, 37, 43, 16, 1, 524, 104]"] ;
122 -> 123 ;
124 [label="gini = 0.5325\nsamples = 208\nvalue = [1, 2, 4, 9, 19, 5, 7, 3, 0, 139, 19]"] ;
123 -> 124 ;
125 [label="gini = 0.6294\nsamples = 662\nvalue = [1, 9, 10, 34, 56, 32, 36, 13, 1, 385, 85]"] ;
123 -> 125 ;
126 [label="X[53] <= 19.5\ngini = 0.769\nsamples = 35\nvalue = [0, 0, 1, 3, 5, 1, 5, 1, 0, 14, 5]"] ;
122 -> 126 ;
127 [label="gini = 0.6168\nsamples = 21\nvalue = [0, 0, 0, 0, 4, 1, 2, 0, 0, 12, 2]"] ;
126 -> 127 ;
128 [label="gini = 0.8265\nsamples = 14\nvalue = [0, 0, 1, 3, 1, 0, 3, 1, 0, 2, 3]"] ;
126 -> 128 ;
129 [label="X[53] <= 20.5\ngini = 0.625\nsamples = 4\nvalue = [0, 0, 0, 1, 2, 0, 1, 0, 0, 0, 0]"] ;
121 -> 129 ;
130 [label="gini = 0.0\nsamples = 2\nvalue = [0, 0, 0, 0, 2, 0, 0, 0, 0, 0, 0]"] ;
129 -> 130 ;
131 [label="X[49] <= 5.0\ngini = 0.5\nsamples = 2\nvalue = [0, 0, 0, 1, 0, 0, 1, 0, 0, 0, 0]"] ;
129 -> 131 ;
132 [label="gini = 0.0\nsamples = 1\nvalue = [0, 0, 0, 0, 0, 0, 1, 0, 0, 0, 0]"] ;
131 -> 132 ;
133 [label="gini = 0.0\nsamples = 1\nvalue = [0, 0, 0, 1, 0, 0, 0, 0, 0, 0, 0]"] ;
131 -> 133 ;
134 [label="gini = 0.0\nsamples = 2\nvalue = [0, 0, 0, 0, 0, 2, 0, 0, 0, 0, 0]"] ;
120 -> 134 ;
135 [label="X[50] <= 11.5\ngini = 0.4275\nsamples = 146\nvalue = [0, 2, 2, 4, 7, 4, 3, 0, 0, 109, 15]"] ;
119 -> 135 ;
136 [label="X[13] <= 0.5\ngini = 0.3288\nsamples = 97\nvalue = [0, 1, 2, 0, 6, 2, 2, 0, 0, 79, 5]"] ;
135 -> 136 ;
137 [label="X[12] <= 0.5\ngini = 0.1867\nsamples = 60\nvalue = [0, 1, 0, 0, 3, 0, 1, 0, 0, 54, 1]"] ;
136 -> 137 ;
138 [label="X[17] <= 0.5\ngini = 0.1365\nsamples = 56\nvalue = [0, 1, 0, 0, 1, 0, 1, 0, 0, 52, 1]"] ;
137 -> 138 ;
139 [label="gini = 0.2241\nsamples = 33\nvalue = [0, 1, 0, 0, 1, 0, 1, 0, 0, 29, 1]"] ;
138 -> 139 ;
140 [label="gini = 0.0\nsamples = 23\nvalue = [0, 0, 0, 0, 0, 0, 0, 0, 0, 23, 0]"] ;
138 -> 140 ;
141 [label="X[49] <= 10.5\ngini = 0.5\nsamples = 4\nvalue = [0, 0, 0, 0, 2, 0, 0, 0, 0, 2, 0]"] ;
137 -> 141 ;
142 [label="gini = 0.0\nsamples = 2\nvalue = [0, 0, 0, 0, 0, 0, 0, 0, 0, 2, 0]"] ;
141 -> 142 ;
143 [label="gini = 0.0\nsamples = 2\nvalue = [0, 0, 0, 0, 2, 0, 0, 0, 0, 0, 0]"] ;
141 -> 143 ;
144 [label="X[51] <= 0.5\ngini = 0.5186\nsamples = 37\nvalue = [0, 0, 2, 0, 3, 2, 1, 0, 0, 25, 4]"] ;
136 -> 144 ;
145 [label="X[53] <= 20.5\ngini = 0.7188\nsamples = 8\nvalue = [0, 0, 2, 0, 2, 0, 1, 0, 0, 3, 0]"] ;
144 -> 145 ;
146 [label="gini = 0.6111\nsamples = 6\nvalue = [0, 0, 2, 0, 0, 0, 1, 0, 0, 3, 0]"] ;
145 -> 146 ;
147 [label="gini = 0.0\nsamples = 2\nvalue = [0, 0, 0, 0, 2, 0, 0, 0, 0, 0, 0]"] ;
145 -> 147 ;
148 [label="X[19] <= 0.5\ngini = 0.3995\nsamples = 29\nvalue = [0, 0, 0, 0, 1, 2, 0, 0, 0, 22, 4]"] ;
144 -> 148 ;
149 [label="gini = 0.3648\nsamples = 28\nvalue = [0, 0, 0, 0, 1, 2, 0, 0, 0, 22, 3]"] ;
148 -> 149 ;
150 [label="gini = 0.0\nsamples = 1\nvalue = [0, 0, 0, 0, 0, 0, 0, 0, 0, 0, 1]"] ;
148 -> 150 ;
151 [label="X[6] <= 0.5\ngini = 0.5739\nsamples = 49\nvalue = [0, 1, 0, 4, 1, 2, 1, 0, 0, 30, 10]"] ;
135 -> 151 ;
152 [label="X[17] <= 0.5\ngini = 0.6304\nsamples = 42\nvalue = [0, 1, 0, 4, 1, 2, 1, 0, 0, 23, 10]"] ;
151 -> 152 ;
153 [label="X[3] <= 0.5\ngini = 0.4793\nsamples = 22\nvalue = [0, 0, 0, 1, 0, 1, 0, 0, 0, 15, 5]"] ;
152 -> 153 ;
154 [label="gini = 0.449\nsamples = 21\nvalue = [0, 0, 0, 1, 0, 1, 0, 0, 0, 15, 4]"] ;
153 -> 154 ;
155 [label="gini = 0.0\nsamples = 1\nvalue = [0, 0, 0, 0, 0, 0, 0, 0, 0, 0, 1]"] ;
153 -> 155 ;
156 [label="X[52] <= 0.5\ngini = 0.745\nsamples = 20\nvalue = [0, 1, 0, 3, 1, 1, 1, 0, 0, 8, 5]"] ;
152 -> 156 ;
157 [label="gini = 0.625\nsamples = 4\nvalue = [0, 0, 0, 2, 1, 0, 0, 0, 0, 1, 0]"] ;
156 -> 157 ;
158 [label="gini = 0.6953\nsamples = 16\nvalue = [0, 1, 0, 1, 0, 1, 1, 0, 0, 7, 5]"] ;
156 -> 158 ;
159 [label="gini = 0.0\nsamples = 7\nvalue = [0, 0, 0, 0, 0, 0, 0, 0, 0, 7, 0]"] ;
151 -> 159 ;
160 [label="X[47] <= 2012.5\ngini = 0.4714\nsamples = 39269\nvalue = [255, 601, 470, 967, 2014, 1014, 1115, 332, 89, 28078, 4334]"] ;
2 -> 160 ;
161 [label="X[22] <= 2.5\ngini = 0.5067\nsamples = 10109\nvalue = [65, 177, 163, 324, 646, 325, 306, 84, 26, 6969, 1024]"] ;
160 -> 161 ;
162 [label="X[48] <= 2010.5\ngini = 0.5456\nsamples = 3643\nvalue = [18, 64, 67, 153, 254, 130, 144, 38, 8, 2400, 367]"] ;
161 -> 162 ;
163 [label="X[35] <= 0.5\ngini = 0.3857\nsamples = 130\nvalue = [0, 4, 1, 9, 8, 1, 4, 1, 0, 101, 1]"] ;
162 -> 163 ;
164 [label="X[52] <= 5.5\ngini = 0.1392\nsamples = 41\nvalue = [0, 1, 0, 0, 1, 0, 0, 0, 0, 38, 1]"] ;
163 -> 164 ;
165 [label="X[13] <= 0.5\ngini = 0.0526\nsamples = 37\nvalue = [0, 0, 0, 0, 1, 0, 0, 0, 0, 36, 0]"] ;
164 -> 165 ;
166 [label="gini = 0.0\nsamples = 26\nvalue = [0, 0, 0, 0, 0, 0, 0, 0, 0, 26, 0]"] ;
165 -> 166 ;
167 [label="X[52] <= 1.5\ngini = 0.1653\nsamples = 11\nvalue = [0, 0, 0, 0, 1, 0, 0, 0, 0, 10, 0]"] ;
165 -> 167 ;
168 [label="gini = 0.4444\nsamples = 3\nvalue = [0, 0, 0, 0, 1, 0, 0, 0, 0, 2, 0]"] ;
167 -> 168 ;
169 [label="gini = 0.0\nsamples = 8\nvalue = [0, 0, 0, 0, 0, 0, 0, 0, 0, 8, 0]"] ;
167 -> 169 ;
170 [label="X[50] <= 4.0\ngini = 0.625\nsamples = 4\nvalue = [0, 1, 0, 0, 0, 0, 0, 0, 0, 2, 1]"] ;
164 -> 170 ;
171 [label="gini = 0.0\nsamples = 2\nvalue = [0, 0, 0, 0, 0, 0, 0, 0, 0, 2, 0]"] ;
170 -> 171 ;
172 [label="X[17] <= 0.5\ngini = 0.5\nsamples = 2\nvalue = [0, 1, 0, 0, 0, 0, 0, 0, 0, 0, 1]"] ;
170 -> 172 ;
173 [label="gini = 0.0\nsamples = 1\nvalue = [0, 0, 0, 0, 0, 0, 0, 0, 0, 0, 1]"] ;
172 -> 173 ;
174 [label="gini = 0.0\nsamples = 1\nvalue = [0, 1, 0, 0, 0, 0, 0, 0, 0, 0, 0]"] ;
172 -> 174 ;
175 [label="X[54] <= 26.5\ngini = 0.479\nsamples = 89\nvalue = [0, 3, 1, 9, 7, 1, 4, 1, 0, 63, 0]"] ;
163 -> 175 ;
176 [label="gini = 0.0\nsamples = 1\nvalue = [0, 0, 0, 0, 0, 0, 1, 0, 0, 0, 0]"] ;
175 -> 176 ;
177 [label="X[49] <= 2.5\ngini = 0.468\nsamples = 88\nvalue = [0, 3, 1, 9, 7, 1, 3, 1, 0, 63, 0]"] ;
175 -> 177 ;
178 [label="X[54] <= 38.0\ngini = 0.6735\nsamples = 14\nvalue = [0, 1, 0, 1, 3, 0, 2, 0, 0, 7, 0]"] ;
177 -> 178 ;
179 [label="gini = 0.54\nsamples = 10\nvalue = [0, 1, 0, 0, 3, 0, 0, 0, 0, 6, 0]"] ;
178 -> 179 ;
180 [label="gini = 0.625\nsamples = 4\nvalue = [0, 0, 0, 1, 0, 0, 2, 0, 0, 1, 0]"] ;
178 -> 180 ;
181 [label="X[50] <= 3.5\ngini = 0.4112\nsamples = 74\nvalue = [0, 2, 1, 8, 4, 1, 1, 1, 0, 56, 0]"] ;
177 -> 181 ;
182 [label="gini = 0.0\nsamples = 16\nvalue = [0, 0, 0, 0, 0, 0, 0, 0, 0, 16, 0]"] ;
181 -> 182 ;
183 [label="gini = 0.4982\nsamples = 58\nvalue = [0, 2, 1, 8, 4, 1, 1, 1, 0, 40, 0]"] ;
181 -> 183 ;
184 [label="X[49] <= 2.5\ngini = 0.5506\nsamples = 3513\nvalue = [18, 60, 66, 144, 246, 129, 140, 37, 8, 2299, 366]"] ;
162 -> 184 ;
185 [label="X[52] <= 3.5\ngini = 0.4876\nsamples = 792\nvalue = [6, 5, 8, 20, 43, 31, 26, 10, 2, 557, 84]"] ;
184 -> 185 ;
186 [label="X[38] <= 0.5\ngini = 0.4534\nsamples = 519\nvalue = [6, 2, 4, 13, 26, 21, 17, 6, 1, 379, 44]"] ;
185 -> 186 ;
187 [label="X[50] <= 1.5\ngini = 0.4709\nsamples = 488\nvalue = [6, 2, 4, 13, 24, 21, 17, 6, 1, 350, 44]"] ;
186 -> 187 ;
188 [label="gini = 0.4082\nsamples = 227\nvalue = [5, 2, 1, 5, 7, 4, 9, 2, 0, 173, 19]"] ;
187 -> 188 ;
189 [label="gini = 0.5202\nsamples = 261\nvalue = [1, 0, 3, 8, 17, 17, 8, 4, 1, 177, 25]"] ;
187 -> 189 ;
190 [label="X[54] <= 60.0\ngini = 0.1207\nsamples = 31\nvalue = [0, 0, 0, 0, 2, 0, 0, 0, 0, 29, 0]"] ;
186 -> 190 ;
191 [label="gini = 0.0666\nsamples = 29\nvalue = [0, 0, 0, 0, 1, 0, 0, 0, 0, 28, 0]"] ;
190 -> 191 ;
192 [label="gini = 0.5\nsamples = 2\nvalue = [0, 0, 0, 0, 1, 0, 0, 0, 0, 1, 0]"] ;
190 -> 192 ;
193 [label="X[54] <= 54.5\ngini = 0.5459\nsamples = 273\nvalue = [0, 3, 4, 7, 17, 10, 9, 4, 1, 178, 40]"] ;
185 -> 193 ;
194 [label="X[14] <= 0.5\ngini = 0.5225\nsamples = 249\nvalue = [0, 3, 4, 7, 13, 9, 9, 4, 1, 168, 31]"] ;
193 -> 194 ;
195 [label="gini = 0.51\nsamples = 231\nvalue = [0, 3, 4, 7, 9, 8, 7, 4, 1, 158, 30]"] ;
194 -> 195 ;
196 [label="gini = 0.6235\nsamples = 18\nvalue = [0, 0, 0, 0, 4, 1, 2, 0, 0, 10, 1]"] ;
194 -> 196 ;
197 [label="X[4] <= 0.5\ngini = 0.6563\nsamples = 24\nvalue = [0, 0, 0, 0, 4, 1, 0, 0, 0, 10, 9]"] ;
193 -> 197 ;
198 [label="gini = 0.58\nsamples = 20\nvalue = [0, 0, 0, 0, 2, 0, 0, 0, 0, 10, 8]"] ;
197 -> 198 ;
199 [label="gini = 0.625\nsamples = 4\nvalue = [0, 0, 0, 0, 2, 1, 0, 0, 0, 0, 1]"] ;
197 -> 199 ;
200 [label="X[53] <= 15.5\ngini = 0.5677\nsamples = 2721\nvalue = [12, 55, 58, 124, 203, 98, 114, 27, 6, 1742, 282]"] ;
184 -> 200 ;
201 [label="X[53] <= 6.5\ngini = 0.588\nsamples = 1347\nvalue = [4, 30, 26, 59, 105, 47, 63, 13, 2, 836, 162]"] ;
200 -> 201 ;
202 [label="X[26] <= 0.5\ngini = 0.5345\nsamples = 934\nvalue = [3, 20, 12, 32, 62, 24, 44, 7, 2, 622, 106]"] ;
201 -> 202 ;
203 [label="gini = 0.5326\nsamples = 932\nvalue = [3, 19, 12, 32, 62, 23, 44, 7, 2, 622, 106]"] ;
202 -> 203 ;
204 [label="gini = 0.5\nsamples = 2\nvalue = [0, 1, 0, 0, 0, 1, 0, 0, 0, 0, 0]"] ;
202 -> 204 ;
205 [label="X[14] <= 0.5\ngini = 0.6908\nsamples = 413\nvalue = [1, 10, 14, 27, 43, 23, 19, 6, 0, 214, 56]"] ;
201 -> 205 ;
206 [label="gini = 0.669\nsamples = 378\nvalue = [0, 10, 14, 23, 35, 21, 16, 4, 0, 205, 50]"] ;
205 -> 206 ;
207 [label="gini = 0.8245\nsamples = 35\nvalue = [1, 0, 0, 4, 8, 2, 3, 2, 0, 9, 6]"] ;
205 -> 207 ;
208 [label="X[26] <= 0.5\ngini = 0.5465\nsamples = 1374\nvalue = [8, 25, 32, 65, 98, 51, 51, 14, 4, 906, 120]"] ;
200 -> 208 ;
209 [label="X[7] <= 0.5\ngini = 0.5456\nsamples = 1371\nvalue = [8, 25, 32, 63, 98, 51, 51, 14, 4, 905, 120]"] ;
208 -> 209 ;
210 [label="gini = 0.5449\nsamples = 1370\nvalue = [8, 25, 32, 63, 98, 51, 51, 13, 4, 905, 120]"] ;
209 -> 210 ;
211 [label="gini = 0.0\nsamples = 1\nvalue = [0, 0, 0, 0, 0, 0, 0, 1, 0, 0, 0]"] ;
209 -> 211 ;
212 [label="X[50] <= 5.5\ngini = 0.4444\nsamples = 3\nvalue = [0, 0, 0, 2, 0, 0, 0, 0, 0, 1, 0]"] ;
208 -> 212 ;
213 [label="gini = 0.0\nsamples = 1\nvalue = [0, 0, 0, 0, 0, 0, 0, 0, 0, 1, 0]"] ;
212 -> 213 ;
214 [label="gini = 0.0\nsamples = 2\nvalue = [0, 0, 0, 2, 0, 0, 0, 0, 0, 0, 0]"] ;
212 -> 214 ;
215 [label="X[52] <= 5.5\ngini = 0.4838\nsamples = 6466\nvalue = [47, 113, 96, 171, 392, 195, 162, 46, 18, 4569, 657]"] ;
161 -> 215 ;
216 [label="X[53] <= 6.5\ngini = 0.4749\nsamples = 5689\nvalue = [41, 105, 83, 154, 334, 168, 136, 39, 14, 4060, 555]"] ;
215 -> 216 ;
217 [label="X[28] <= 350.5\ngini = 0.4385\nsamples = 1991\nvalue = [17, 30, 22, 50, 108, 49, 43, 10, 6, 1474, 182]"] ;
216 -> 217 ;
218 [label="X[50] <= 8.5\ngini = 0.4374\nsamples = 1989\nvalue = [17, 30, 22, 50, 108, 49, 42, 10, 6, 1474, 181]"] ;
217 -> 218 ;
219 [label="X[13] <= 0.5\ngini = 0.4828\nsamples = 663\nvalue = [2, 10, 9, 26, 44, 15, 20, 2, 3, 469, 63]"] ;
218 -> 219 ;
220 [label="gini = 0.5219\nsamples = 443\nvalue = [2, 8, 8, 16, 37, 11, 16, 2, 2, 300, 41]"] ;
219 -> 220 ;
221 [label="gini = 0.396\nsamples = 220\nvalue = [0, 2, 1, 10, 7, 4, 4, 0, 1, 169, 22]"] ;
219 -> 221 ;
222 [label="X[54] <= 42.5\ngini = 0.4136\nsamples = 1326\nvalue = [15, 20, 13, 24, 64, 34, 22, 8, 3, 1005, 118]"] ;
218 -> 222 ;
223 [label="gini = 0.4255\nsamples = 1054\nvalue = [15, 17, 9, 20, 50, 23, 15, 7, 2, 789, 107]"] ;
222 -> 223 ;
224 [label="gini = 0.3622\nsamples = 272\nvalue = [0, 3, 4, 4, 14, 11, 7, 1, 1, 216, 11]"] ;
222 -> 224 ;
225 [label="X[51] <= 2.0\ngini = 0.5\nsamples = 2\nvalue = [0, 0, 0, 0, 0, 0, 1, 0, 0, 0, 1]"] ;
217 -> 225 ;
226 [label="gini = 0.0\nsamples = 1\nvalue = [0, 0, 0, 0, 0, 0, 0, 0, 0, 0, 1]"] ;
225 -> 226 ;
227 [label="gini = 0.0\nsamples = 1\nvalue = [0, 0, 0, 0, 0, 0, 1, 0, 0, 0, 0]"] ;
225 -> 227 ;
228 [label="X[53] <= 14.5\ngini = 0.4938\nsamples = 3698\nvalue = [24, 75, 61, 104, 226, 119, 93, 29, 8, 2586, 373]"] ;
216 -> 228 ;
229 [label="X[53] <= 9.5\ngini = 0.6319\nsamples = 683\nvalue = [9, 14, 22, 37, 54, 33, 23, 4, 4, 397, 86]"] ;
228 -> 229 ;
230 [label="X[52] <= 2.5\ngini = 0.557\nsamples = 334\nvalue = [5, 4, 10, 16, 27, 11, 11, 1, 1, 217, 31]"] ;
229 -> 230 ;
231 [label="gini = 0.621\nsamples = 177\nvalue = [4, 2, 8, 8, 19, 7, 8, 1, 0, 105, 15]"] ;
230 -> 231 ;
232 [label="gini = 0.4741\nsamples = 157\nvalue = [1, 2, 2, 8, 8, 4, 3, 0, 1, 112, 16]"] ;
230 -> 232 ;
233 [label="X[54] <= 43.5\ngini = 0.6921\nsamples = 349\nvalue = [4, 10, 12, 21, 27, 22, 12, 3, 3, 180, 55]"] ;
229 -> 233 ;
234 [label="gini = 0.7136\nsamples = 268\nvalue = [4, 8, 11, 15, 17, 21, 11, 3, 3, 132, 43]"] ;
233 -> 234 ;
235 [label="gini = 0.6051\nsamples = 81\nvalue = [0, 2, 1, 6, 10, 1, 1, 0, 0, 48, 12]"] ;
233 -> 235 ;
236 [label="X[3] <= 0.5\ngini = 0.458\nsamples = 3015\nvalue = [15, 61, 39, 67, 172, 86, 70, 25, 4, 2189, 287]"] ;
228 -> 236 ;
237 [label="X[48] <= 2010.5\ngini = 0.4554\nsamples = 2992\nvalue = [15, 59, 39, 66, 167, 84, 70, 25, 4, 2178, 285]"] ;
236 -> 237 ;
238 [label="gini = 0.5852\nsamples = 137\nvalue = [1, 6, 2, 4, 15, 3, 2, 3, 0, 85, 16]"] ;
237 -> 238 ;
239 [label="gini = 0.4484\nsamples = 2855\nvalue = [14, 53, 37, 62, 152, 81, 68, 22, 4, 2093, 269]"] ;
237 -> 239 ;
240 [label="X[54] <= 48.5\ngini = 0.6994\nsamples = 23\nvalue = [0, 2, 0, 1, 5, 2, 0, 0, 0, 11, 2]"] ;
236 -> 240 ;
241 [label="gini = 0.5612\nsamples = 14\nvalue = [0, 1, 0, 1, 1, 1, 0, 0, 0, 9, 1]"] ;
240 -> 241 ;
242 [label="gini = 0.716\nsamples = 9\nvalue = [0, 1, 0, 0, 4, 1, 0, 0, 0, 2, 1]"] ;
240 -> 242 ;
243 [label="X[11] <= 0.5\ngini = 0.5447\nsamples = 777\nvalue = [6, 8, 13, 17, 58, 27, 26, 7, 4, 509, 102]"] ;
215 -> 243 ;
244 [label="X[17] <= 0.5\ngini = 0.5401\nsamples = 769\nvalue = [6, 8, 13, 17, 58, 26, 25, 7, 4, 507, 98]"] ;
243 -> 244 ;
245 [label="X[22] <= 3.5\ngini = 0.4836\nsamples = 333\nvalue = [2, 1, 4, 9, 18, 7, 18, 1, 3, 235, 35]"] ;
244 -> 245 ;
246 [label="X[54] <= 65.5\ngini = 0.5891\nsamples = 165\nvalue = [1, 0, 4, 8, 8, 4, 16, 1, 2, 102, 19]"] ;
245 -> 246 ;
247 [label="gini = 0.5706\nsamples = 161\nvalue = [0, 0, 4, 7, 8, 4, 16, 1, 1, 102, 18]"] ;
246 -> 247 ;
248 [label="gini = 0.75\nsamples = 4\nvalue = [1, 0, 0, 1, 0, 0, 0, 0, 1, 0, 1]"] ;
246 -> 248 ;
249 [label="X[53] <= 18.5\ngini = 0.36\nsamples = 168\nvalue = [1, 1, 0, 1, 10, 3, 2, 0, 1, 133, 16]"] ;
245 -> 249 ;
250 [label="gini = 0.4351\nsamples = 114\nvalue = [1, 1, 0, 1, 9, 2, 1, 0, 1, 84, 14]"] ;
249 -> 250 ;
251 [label="gini = 0.1742\nsamples = 54\nvalue = [0, 0, 0, 0, 1, 1, 1, 0, 0, 49, 2]"] ;
249 -> 251 ;
252 [label="X[0] <= 0.5\ngini = 0.5781\nsamples = 436\nvalue = [4, 7, 9, 8, 40, 19, 7, 6, 1, 272, 63]"] ;
244 -> 252 ;
253 [label="X[53] <= 1.5\ngini = 0.6192\nsamples = 285\nvalue = [2, 5, 5, 5, 30, 15, 5, 5, 1, 166, 46]"] ;
252 -> 253 ;
254 [label="gini = 0.6003\nsamples = 34\nvalue = [0, 0, 1, 1, 1, 0, 1, 0, 0, 17, 13]"] ;
253 -> 254 ;
255 [label="gini = 0.6118\nsamples = 251\nvalue = [2, 5, 4, 4, 29, 15, 4, 5, 1, 149, 33]"] ;
253 -> 255 ;
256 [label="X[53] <= 15.5\ngini = 0.4878\nsamples = 151\nvalue = [2, 2, 4, 3, 10, 4, 2, 1, 0, 106, 17]"] ;
252 -> 256 ;
257 [label="gini = 0.374\nsamples = 65\nvalue = [1, 0, 4, 0, 1, 3, 1, 0, 0, 51, 4]"] ;
256 -> 257 ;
258 [label="gini = 0.5549\nsamples = 86\nvalue = [1, 2, 0, 3, 9, 1, 1, 1, 0, 55, 13]"] ;
256 -> 258 ;
259 [label="X[53] <= 3.5\ngini = 0.6563\nsamples = 8\nvalue = [0, 0, 0, 0, 0, 1, 1, 0, 0, 2, 4]"] ;
243 -> 259 ;
260 [label="X[25] <= 3.5\ngini = 0.5\nsamples = 2\nvalue = [0, 0, 0, 0, 0, 1, 1, 0, 0, 0, 0]"] ;
259 -> 260 ;
261 [label="gini = 0.0\nsamples = 1\nvalue = [0, 0, 0, 0, 0, 0, 1, 0, 0, 0, 0]"] ;
260 -> 261 ;
262 [label="gini = 0.0\nsamples = 1\nvalue = [0, 0, 0, 0, 0, 1, 0, 0, 0, 0, 0]"] ;
260 -> 262 ;
263 [label="X[54] <= 43.0\ngini = 0.4444\nsamples = 6\nvalue = [0, 0, 0, 0, 0, 0, 0, 0, 0, 2, 4]"] ;
259 -> 263 ;
264 [label="gini = 0.0\nsamples = 2\nvalue = [0, 0, 0, 0, 0, 0, 0, 0, 0, 0, 2]"] ;
263 -> 264 ;
265 [label="X[54] <= 50.0\ngini = 0.5\nsamples = 4\nvalue = [0, 0, 0, 0, 0, 0, 0, 0, 0, 2, 2]"] ;
263 -> 265 ;
266 [label="gini = 0.0\nsamples = 2\nvalue = [0, 0, 0, 0, 0, 0, 0, 0, 0, 2, 0]"] ;
265 -> 266 ;
267 [label="gini = 0.0\nsamples = 2\nvalue = [0, 0, 0, 0, 0, 0, 0, 0, 0, 0, 2]"] ;
265 -> 267 ;
268 [label="X[54] <= 36.5\ngini = 0.4586\nsamples = 29160\nvalue = [190, 424, 307, 643, 1368, 689, 809, 248, 63, 21109, 3310]"] ;
160 -> 268 ;
269 [label="X[53] <= 14.5\ngini = 0.4392\nsamples = 18732\nvalue = [110, 248, 188, 435, 778, 356, 460, 158, 41, 13817, 2141]"] ;
268 -> 269 ;
270 [label="X[53] <= 7.5\ngini = 0.4599\nsamples = 9172\nvalue = [62, 123, 112, 215, 391, 181, 230, 84, 19, 6620, 1135]"] ;
269 -> 270 ;
271 [label="X[50] <= 9.5\ngini = 0.4301\nsamples = 7780\nvalue = [46, 106, 82, 165, 301, 130, 181, 63, 11, 5786, 909]"] ;
270 -> 271 ;
272 [label="X[53] <= 1.5\ngini = 0.4421\nsamples = 6577\nvalue = [35, 97, 74, 156, 272, 117, 164, 56, 10, 4837, 759]"] ;
271 -> 272 ;
273 [label="X[24] <= 0.5\ngini = 0.3965\nsamples = 1740\nvalue = [12, 31, 16, 48, 64, 20, 38, 6, 2, 1338, 165]"] ;
272 -> 273 ;
274 [label="gini = 0.3959\nsamples = 1739\nvalue = [12, 31, 16, 48, 64, 20, 38, 6, 2, 1338, 164]"] ;
273 -> 274 ;
275 [label="gini = 0.0\nsamples = 1\nvalue = [0, 0, 0, 0, 0, 0, 0, 0, 0, 0, 1]"] ;
273 -> 275 ;
276 [label="X[53] <= 6.5\ngini = 0.4577\nsamples = 4837\nvalue = [23, 66, 58, 108, 208, 97, 126, 50, 8, 3499, 594]"] ;
272 -> 276 ;
277 [label="gini = 0.4497\nsamples = 4322\nvalue = [20, 60, 54, 92, 184, 84, 108, 46, 8, 3154, 512]"] ;
276 -> 277 ;
278 [label="gini = 0.5206\nsamples = 515\nvalue = [3, 6, 4, 16, 24, 13, 18, 4, 0, 345, 82]"] ;
276 -> 278 ;
279 [label="X[3] <= 0.5\ngini = 0.361\nsamples = 1203\nvalue = [11, 9, 8, 9, 29, 13, 17, 7, 1, 949, 150]"] ;
271 -> 279 ;
280 [label="X[51] <= 4.5\ngini = 0.355\nsamples = 1194\nvalue = [11, 8, 8, 9, 29, 13, 16, 7, 1, 947, 145]"] ;
279 -> 280 ;
281 [label="gini = 0.3252\nsamples = 934\nvalue = [9, 4, 6, 8, 18, 7, 9, 4, 1, 759, 109]"] ;
280 -> 281 ;
282 [label="gini = 0.4544\nsamples = 260\nvalue = [2, 4, 2, 1, 11, 6, 7, 3, 0, 188, 36]"] ;
280 -> 282 ;
283 [label="X[52] <= 2.5\ngini = 0.6173\nsamples = 9\nvalue = [0, 1, 0, 0, 0, 0, 1, 0, 0, 2, 5]"] ;
279 -> 283 ;
284 [label="gini = 0.0\nsamples = 4\nvalue = [0, 0, 0, 0, 0, 0, 0, 0, 0, 0, 4]"] ;
283 -> 284 ;
285 [label="gini = 0.72\nsamples = 5\nvalue = [0, 1, 0, 0, 0, 0, 1, 0, 0, 2, 1]"] ;
283 -> 285 ;
286 [label="X[53] <= 8.5\ngini = 0.6056\nsamples = 1392\nvalue = [16, 17, 30, 50, 90, 51, 49, 21, 8, 834, 226]"] ;
270 -> 286 ;
287 [label="X[9] <= 0.5\ngini = 0.5316\nsamples = 411\nvalue = [5, 6, 5, 8, 29, 6, 11, 4, 2, 272, 63]"] ;
286 -> 287 ;
288 [label="X[10] <= 0.5\ngini = 0.526\nsamples = 403\nvalue = [5, 6, 5, 8, 29, 6, 10, 4, 2, 269, 59]"] ;
287 -> 288 ;
289 [label="gini = 0.5169\nsamples = 375\nvalue = [5, 6, 5, 8, 27, 6, 9, 4, 2, 254, 49]"] ;
288 -> 289 ;
290 [label="gini = 0.5791\nsamples = 28\nvalue = [0, 0, 0, 0, 2, 0, 1, 0, 0, 15, 10]"] ;
288 -> 290 ;
291 [label="X[51] <= 3.0\ngini = 0.5938\nsamples = 8\nvalue = [0, 0, 0, 0, 0, 0, 1, 0, 0, 3, 4]"] ;
287 -> 291 ;
292 [label="gini = 0.0\nsamples = 3\nvalue = [0, 0, 0, 0, 0, 0, 0, 0, 0, 0, 3]"] ;
291 -> 292 ;
293 [label="gini = 0.56\nsamples = 5\nvalue = [0, 0, 0, 0, 0, 0, 1, 0, 0, 3, 1]"] ;
291 -> 293 ;
294 [label="X[53] <= 13.5\ngini = 0.6337\nsamples = 981\nvalue = [11, 11, 25, 42, 61, 45, 38, 17, 6, 562, 163]"] ;
286 -> 294 ;
295 [label="X[49] <= 2.5\ngini = 0.6551\nsamples = 753\nvalue = [9, 10, 19, 37, 51, 34, 27, 16, 6, 415, 129]"] ;
294 -> 295 ;
296 [label="gini = 0.5721\nsamples = 156\nvalue = [1, 2, 4, 4, 7, 4, 9, 1, 1, 98, 25]"] ;
295 -> 296 ;
297 [label="gini = 0.6741\nsamples = 597\nvalue = [8, 8, 15, 33, 44, 30, 18, 15, 5, 317, 104]"] ;
295 -> 297 ;
298 [label="X[49] <= 10.5\ngini = 0.5542\nsamples = 228\nvalue = [2, 1, 6, 5, 10, 11, 11, 1, 0, 147, 34]"] ;
294 -> 298 ;
299 [label="gini = 0.5459\nsamples = 203\nvalue = [2, 0, 6, 4, 10, 11, 11, 1, 0, 133, 25]"] ;
298 -> 299 ;
300 [label="gini = 0.5536\nsamples = 25\nvalue = [0, 1, 0, 1, 0, 0, 0, 0, 0, 14, 9]"] ;
298 -> 300 ;
301 [label="X[12] <= 0.5\ngini = 0.4188\nsamples = 9560\nvalue = [48, 125, 76, 220, 387, 175, 230, 74, 22, 7197, 1006]"] ;
269 -> 301 ;
302 [label="X[45] <= 0.5\ngini = 0.4164\nsamples = 9443\nvalue = [48, 125, 74, 218, 381, 171, 228, 70, 22, 7126, 980]"] ;
301 -> 302 ;
303 [label="X[47] <= 2013.5\ngini = 0.4084\nsamples = 7602\nvalue = [33, 99, 65, 165, 286, 126, 173, 56, 14, 5776, 809]"] ;
302 -> 303 ;
304 [label="X[49] <= 7.5\ngini = 0.4213\nsamples = 3966\nvalue = [19, 54, 42, 104, 175, 60, 91, 29, 8, 2980, 404]"] ;
303 -> 304 ;
305 [label="gini = 0.4462\nsamples = 2134\nvalue = [5, 27, 26, 73, 110, 36, 57, 13, 7, 1566, 214]"] ;
304 -> 305 ;
306 [label="gini = 0.391\nsamples = 1832\nvalue = [14, 27, 16, 31, 65, 24, 34, 16, 1, 1414, 190]"] ;
304 -> 306 ;
307 [label="X[54] <= 24.5\ngini = 0.394\nsamples = 3636\nvalue = [14, 45, 23, 61, 111, 66, 82, 27, 6, 2796, 405]"] ;
303 -> 307 ;
308 [label="gini = 0.4724\nsamples = 196\nvalue = [1, 3, 0, 6, 10, 8, 3, 2, 2, 140, 21]"] ;
307 -> 308 ;
309 [label="gini = 0.3892\nsamples = 3440\nvalue = [13, 42, 23, 55, 101, 58, 79, 25, 4, 2656, 384]"] ;
307 -> 309 ;
310 [label="X[52] <= 5.5\ngini = 0.4483\nsamples = 1841\nvalue = [15, 26, 9, 53, 95, 45, 55, 14, 8, 1350, 171]"] ;
302 -> 310 ;
311 [label="X[51] <= 1.5\ngini = 0.4343\nsamples = 1617\nvalue = [14, 22, 9, 43, 73, 42, 51, 14, 7, 1203, 139]"] ;
310 -> 311 ;
312 [label="gini = 0.4765\nsamples = 574\nvalue = [6, 11, 2, 18, 25, 24, 23, 7, 2, 410, 46]"] ;
311 -> 312 ;
313 [label="gini = 0.41\nsamples = 1043\nvalue = [8, 11, 7, 25, 48, 18, 28, 7, 5, 793, 93]"] ;
311 -> 313 ;
314 [label="X[54] <= 28.5\ngini = 0.5364\nsamples = 224\nvalue = [1, 4, 0, 10, 22, 3, 4, 0, 1, 147, 32]"] ;
310 -> 314 ;
315 [label="gini = 0.3609\nsamples = 77\nvalue = [0, 0, 0, 6, 2, 1, 1, 0, 1, 61, 5]"] ;
314 -> 315 ;
316 [label="gini = 0.6034\nsamples = 147\nvalue = [1, 4, 0, 4, 20, 2, 3, 0, 0, 86, 27]"] ;
314 -> 316 ;
317 [label="X[53] <= 17.5\ngini = 0.5765\nsamples = 117\nvalue = [0, 0, 2, 2, 6, 4, 2, 4, 0, 71, 26]"] ;
301 -> 317 ;
318 [label="X[51] <= 5.5\ngini = 0.4082\nsamples = 21\nvalue = [0, 0, 1, 0, 0, 1, 1, 1, 0, 16, 1]"] ;
317 -> 318 ;
319 [label="X[6] <= 0.5\ngini = 0.35\nsamples = 20\nvalue = [0, 0, 1, 0, 0, 0, 1, 1, 0, 16, 1]"] ;
318 -> 319 ;
320 [label="gini = 0.2825\nsamples = 19\nvalue = [0, 0, 1, 0, 0, 0, 0, 1, 0, 16, 1]"] ;
319 -> 320 ;
321 [label="gini = 0.0\nsamples = 1\nvalue = [0, 0, 0, 0, 0, 0, 1, 0, 0, 0, 0]"] ;
319 -> 321 ;
322 [label="gini = 0.0\nsamples = 1\nvalue = [0, 0, 0, 0, 0, 1, 0, 0, 0, 0, 0]"] ;
318 -> 322 ;
323 [label="X[54] <= 31.5\ngini = 0.5974\nsamples = 96\nvalue = [0, 0, 1, 2, 6, 3, 1, 3, 0, 55, 25]"] ;
317 -> 323 ;
324 [label="X[53] <= 22.5\ngini = 0.566\nsamples = 75\nvalue = [0, 0, 0, 1, 1, 3, 1, 3, 0, 44, 22]"] ;
323 -> 324 ;
325 [label="gini = 0.5604\nsamples = 62\nvalue = [0, 0, 0, 1, 1, 3, 1, 3, 0, 38, 15]"] ;
324 -> 325 ;
326 [label="gini = 0.497\nsamples = 13\nvalue = [0, 0, 0, 0, 0, 0, 0, 0, 0, 6, 7]"] ;
324 -> 326 ;
327 [label="X[52] <= 1.5\ngini = 0.644\nsamples = 21\nvalue = [0, 0, 1, 1, 5, 0, 0, 0, 0, 11, 3]"] ;
323 -> 327 ;
328 [label="gini = 0.7222\nsamples = 6\nvalue = [0, 0, 1, 1, 0, 0, 0, 0, 0, 2, 2]"] ;
327 -> 328 ;
329 [label="gini = 0.5244\nsamples = 15\nvalue = [0, 0, 0, 0, 5, 0, 0, 0, 0, 9, 1]"] ;
327 -> 329 ;
330 [label="X[49] <= 5.5\ngini = 0.4922\nsamples = 10428\nvalue = [80, 176, 119, 208, 590, 333, 349, 90, 22, 7292, 1169]"] ;
268 -> 330 ;
331 [label="X[54] <= 48.5\ngini = 0.5177\nsamples = 5794\nvalue = [44, 82, 74, 127, 373, 199, 209, 56, 15, 3933, 682]"] ;
330 -> 331 ;
332 [label="X[47] <= 2013.5\ngini = 0.4886\nsamples = 3543\nvalue = [26, 55, 39, 62, 216, 98, 114, 26, 6, 2483, 418]"] ;
331 -> 332 ;
333 [label="X[36] <= 0.5\ngini = 0.5224\nsamples = 1345\nvalue = [15, 25, 22, 33, 97, 44, 47, 13, 4, 911, 134]"] ;
332 -> 333 ;
334 [label="X[46] <= 0.5\ngini = 0.5203\nsamples = 1340\nvalue = [15, 25, 22, 33, 96, 43, 47, 13, 4, 910, 132]"] ;
333 -> 334 ;
335 [label="gini = 0.5026\nsamples = 1100\nvalue = [10, 21, 14, 26, 76, 34, 32, 9, 2, 761, 115]"] ;
334 -> 335 ;
336 [label="gini = 0.5943\nsamples = 240\nvalue = [5, 4, 8, 7, 20, 9, 15, 4, 2, 149, 17]"] ;
334 -> 336 ;
337 [label="X[54] <= 39.5\ngini = 0.72\nsamples = 5\nvalue = [0, 0, 0, 0, 1, 1, 0, 0, 0, 1, 2]"] ;
333 -> 337 ;
338 [label="gini = 0.4444\nsamples = 3\nvalue = [0, 0, 0, 0, 0, 0, 0, 0, 0, 1, 2]"] ;
337 -> 338 ;
339 [label="gini = 0.5\nsamples = 2\nvalue = [0, 0, 0, 0, 1, 1, 0, 0, 0, 0, 0]"] ;
337 -> 339 ;
340 [label="X[54] <= 44.5\ngini = 0.4669\nsamples = 2198\nvalue = [11, 30, 17, 29, 119, 54, 67, 13, 2, 1572, 284]"] ;
332 -> 340 ;
341 [label="X[53] <= 14.5\ngini = 0.4776\nsamples = 1682\nvalue = [5, 26, 14, 22, 94, 34, 49, 10, 2, 1186, 240]"] ;
340 -> 341 ;
342 [label="gini = 0.508\nsamples = 806\nvalue = [3, 12, 9, 13, 41, 16, 25, 4, 1, 546, 136]"] ;
341 -> 342 ;
343 [label="gini = 0.4469\nsamples = 876\nvalue = [2, 14, 5, 9, 53, 18, 24, 6, 1, 640, 104]"] ;
341 -> 343 ;
344 [label="X[7] <= 0.5\ngini = 0.4276\nsamples = 516\nvalue = [6, 4, 3, 7, 25, 20, 18, 3, 0, 386, 44]"] ;
340 -> 344 ;
345 [label="gini = 0.4216\nsamples = 513\nvalue = [6, 4, 3, 7, 24, 19, 18, 3, 0, 386, 43]"] ;
344 -> 345 ;
346 [label="gini = 0.6667\nsamples = 3\nvalue = [0, 0, 0, 0, 1, 1, 0, 0, 0, 0, 1]"] ;
344 -> 346 ;
347 [label="X[0] <= 0.5\ngini = 0.5612\nsamples = 2251\nvalue = [18, 27, 35, 65, 157, 101, 95, 30, 9, 1450, 264]"] ;
331 -> 347 ;
348 [label="X[54] <= 64.5\ngini = 0.5785\nsamples = 1725\nvalue = [17, 24, 26, 51, 125, 79, 73, 27, 6, 1085, 212]"] ;
347 -> 348 ;
349 [label="X[53] <= 22.5\ngini = 0.5618\nsamples = 1395\nvalue = [14, 19, 19, 43, 93, 62, 53, 21, 6, 898, 167]"] ;
348 -> 349 ;
350 [label="gini = 0.5707\nsamples = 1299\nvalue = [14, 19, 18, 41, 89, 59, 50, 21, 3, 826, 159]"] ;
349 -> 350 ;
351 [label="gini = 0.4253\nsamples = 96\nvalue = [0, 0, 1, 2, 4, 3, 3, 0, 3, 72, 8]"] ;
349 -> 351 ;
352 [label="X[5] <= 0.5\ngini = 0.6429\nsamples = 330\nvalue = [3, 5, 7, 8, 32, 17, 20, 6, 0, 187, 45]"] ;
348 -> 352 ;
353 [label="gini = 0.6402\nsamples = 328\nvalue = [3, 5, 7, 8, 32, 17, 20, 6, 0, 187, 43]"] ;
352 -> 353 ;
354 [label="gini = 0.0\nsamples = 2\nvalue = [0, 0, 0, 0, 0, 0, 0, 0, 0, 0, 2]"] ;
352 -> 354 ;
355 [label="X[19] <= 0.5\ngini = 0.5004\nsamples = 526\nvalue = [1, 3, 9, 14, 32, 22, 22, 3, 3, 365, 52]"] ;
347 -> 355 ;
356 [label="X[3] <= 0.5\ngini = 0.4968\nsamples = 524\nvalue = [1, 3, 8, 14, 32, 22, 21, 3, 3, 365, 52]"] ;
355 -> 356 ;
357 [label="gini = 0.4933\nsamples = 522\nvalue = [1, 3, 8, 14, 31, 22, 20, 3, 3, 365, 52]"] ;
356 -> 357 ;
358 [label="gini = 0.5\nsamples = 2\nvalue = [0, 0, 0, 0, 1, 0, 1, 0, 0, 0, 0]"] ;
356 -> 358 ;
359 [label="X[47] <= 2013.5\ngini = 0.5\nsamples = 2\nvalue = [0, 0, 1, 0, 0, 0, 1, 0, 0, 0, 0]"] ;
355 -> 359 ;
360 [label="gini = 0.0\nsamples = 1\nvalue = [0, 0, 1, 0, 0, 0, 0, 0, 0, 0, 0]"] ;
359 -> 360 ;
361 [label="gini = 0.0\nsamples = 1\nvalue = [0, 0, 0, 0, 0, 0, 1, 0, 0, 0, 0]"] ;
359 -> 361 ;
362 [label="X[38] <= 0.5\ngini = 0.4587\nsamples = 4634\nvalue = [36, 94, 45, 81, 217, 134, 140, 34, 7, 3359, 487]"] ;
330 -> 362 ;
363 [label="X[52] <= 3.5\ngini = 0.4661\nsamples = 4224\nvalue = [35, 91, 41, 76, 202, 121, 132, 33, 7, 3039, 447]"] ;
362 -> 363 ;
364 [label="X[22] <= 2.5\ngini = 0.4568\nsamples = 2605\nvalue = [27, 61, 22, 46, 92, 79, 77, 21, 2, 1891, 287]"] ;
363 -> 364 ;
365 [label="X[16] <= 0.5\ngini = 0.4948\nsamples = 839\nvalue = [7, 29, 2, 21, 34, 24, 28, 12, 0, 585, 97]"] ;
364 -> 365 ;
366 [label="gini = 0.4937\nsamples = 838\nvalue = [7, 29, 2, 21, 33, 24, 28, 12, 0, 585, 97]"] ;
365 -> 366 ;
367 [label="gini = 0.0\nsamples = 1\nvalue = [0, 0, 0, 0, 1, 0, 0, 0, 0, 0, 0]"] ;
365 -> 367 ;
368 [label="X[54] <= 45.5\ngini = 0.4379\nsamples = 1766\nvalue = [20, 32, 20, 25, 58, 55, 49, 9, 2, 1306, 190]"] ;
364 -> 368 ;
369 [label="gini = 0.4676\nsamples = 929\nvalue = [13, 16, 13, 17, 33, 26, 26, 5, 2, 666, 112]"] ;
368 -> 369 ;
370 [label="gini = 0.4032\nsamples = 837\nvalue = [7, 16, 7, 8, 25, 29, 23, 4, 0, 640, 78]"] ;
368 -> 370 ;
371 [label="X[10] <= 0.5\ngini = 0.4801\nsamples = 1619\nvalue = [8, 30, 19, 30, 110, 42, 55, 12, 5, 1148, 160]"] ;
363 -> 371 ;
372 [label="X[54] <= 80.5\ngini = 0.4723\nsamples = 1550\nvalue = [8, 27, 19, 30, 104, 41, 52, 12, 5, 1109, 143]"] ;
371 -> 372 ;
373 [label="gini = 0.4704\nsamples = 1544\nvalue = [8, 27, 19, 30, 103, 41, 50, 12, 5, 1107, 142]"] ;
372 -> 373 ;
374 [label="gini = 0.7222\nsamples = 6\nvalue = [0, 0, 0, 0, 1, 0, 2, 0, 0, 2, 1]"] ;
372 -> 374 ;
375 [label="X[45] <= 0.5\ngini = 0.6083\nsamples = 69\nvalue = [0, 3, 0, 0, 6, 1, 3, 0, 0, 39, 17]"] ;
371 -> 375 ;
376 [label="gini = 0.5589\nsamples = 60\nvalue = [0, 2, 0, 0, 3, 1, 3, 0, 0, 37, 14]"] ;
375 -> 376 ;
377 [label="gini = 0.716\nsamples = 9\nvalue = [0, 1, 0, 0, 3, 0, 0, 0, 0, 2, 3]"] ;
375 -> 377 ;
378 [label="X[54] <= 37.5\ngini = 0.3783\nsamples = 410\nvalue = [1, 3, 4, 5, 15, 13, 8, 1, 0, 320, 40]"] ;
362 -> 378 ;
379 [label="X[53] <= 2.5\ngini = 0.5551\nsamples = 35\nvalue = [0, 0, 1, 1, 1, 3, 0, 0, 0, 22, 7]"] ;
378 -> 379 ;
380 [label="gini = 0.0\nsamples = 6\nvalue = [0, 0, 0, 0, 0, 0, 0, 0, 0, 6, 0]"] ;
379 -> 380 ;
381 [label="X[53] <= 16.5\ngini = 0.6231\nsamples = 29\nvalue = [0, 0, 1, 1, 1, 3, 0, 0, 0, 16, 7]"] ;
379 -> 381 ;
382 [label="gini = 0.7578\nsamples = 16\nvalue = [0, 0, 1, 1, 1, 3, 0, 0, 0, 5, 5]"] ;
381 -> 382 ;
383 [label="gini = 0.2604\nsamples = 13\nvalue = [0, 0, 0, 0, 0, 0, 0, 0, 0, 11, 2]"] ;
381 -> 383 ;
384 [label="X[54] <= 57.5\ngini = 0.3579\nsamples = 375\nvalue = [1, 3, 3, 4, 14, 10, 8, 1, 0, 298, 33]"] ;
378 -> 384 ;
385 [label="X[16] <= 0.5\ngini = 0.338\nsamples = 338\nvalue = [1, 2, 3, 4, 11, 9, 5, 1, 0, 273, 29]"] ;
384 -> 385 ;
386 [label="gini = 0.3341\nsamples = 337\nvalue = [1, 1, 3, 4, 11, 9, 5, 1, 0, 273, 29]"] ;
385 -> 386 ;
387 [label="gini = 0.0\nsamples = 1\nvalue = [0, 1, 0, 0, 0, 0, 0, 0, 0, 0, 0]"] ;
385 -> 387 ;
388 [label="X[54] <= 58.5\ngini = 0.5172\nsamples = 37\nvalue = [0, 1, 0, 0, 3, 1, 3, 0, 0, 25, 4]"] ;
384 -> 388 ;
389 [label="gini = 0.625\nsamples = 4\nvalue = [0, 0, 0, 0, 0, 0, 1, 0, 0, 1, 2]"] ;
388 -> 389 ;
390 [label="gini = 0.4536\nsamples = 33\nvalue = [0, 1, 0, 0, 3, 1, 2, 0, 0, 24, 2]"] ;
388 -> 390 ;
391 [label="X[47] <= 2013.5\ngini = 0.5584\nsamples = 3542\nvalue = [26, 66, 55, 91, 246, 106, 121, 38, 11, 2276, 506]"] ;
1 -> 391 ;
392 [label="X[22] <= 2.5\ngini = 0.5773\nsamples = 2586\nvalue = [19, 53, 43, 77, 200, 73, 92, 31, 8, 1620, 370]"] ;
391 -> 392 ;
393 [label="X[54] <= 66.5\ngini = 0.6095\nsamples = 1114\nvalue = [5, 28, 16, 43, 112, 32, 42, 15, 5, 666, 150]"] ;
392 -> 393 ;
394 [label="X[48] <= 2011.5\ngini = 0.6011\nsamples = 1056\nvalue = [5, 28, 16, 42, 101, 31, 39, 13, 5, 641, 135]"] ;
393 -> 394 ;
395 [label="X[53] <= 5.5\ngini = 0.5294\nsamples = 140\nvalue = [2, 5, 1, 3, 16, 4, 6, 1, 2, 94, 6]"] ;
394 -> 395 ;
396 [label="X[14] <= 0.5\ngini = 0.2222\nsamples = 33\nvalue = [0, 1, 0, 0, 1, 0, 2, 0, 0, 29, 0]"] ;
395 -> 396 ;
397 [label="X[54] <= 26.0\ngini = 0.1738\nsamples = 32\nvalue = [0, 1, 0, 0, 0, 0, 2, 0, 0, 29, 0]"] ;
396 -> 397 ;
398 [label="X[51] <= 0.5\ngini = 0.5\nsamples = 4\nvalue = [0, 0, 0, 0, 0, 0, 2, 0, 0, 2, 0]"] ;
397 -> 398 ;
399 [label="gini = 0.0\nsamples = 2\nvalue = [0, 0, 0, 0, 0, 0, 0, 0, 0, 2, 0]"] ;
398 -> 399 ;
400 [label="gini = 0.0\nsamples = 2\nvalue = [0, 0, 0, 0, 0, 0, 2, 0, 0, 0, 0]"] ;
398 -> 400 ;
401 [label="X[1] <= 0.5\ngini = 0.0689\nsamples = 28\nvalue = [0, 1, 0, 0, 0, 0, 0, 0, 0, 27, 0]"] ;
397 -> 401 ;
402 [label="gini = 0.0\nsamples = 26\nvalue = [0, 0, 0, 0, 0, 0, 0, 0, 0, 26, 0]"] ;
401 -> 402 ;
403 [label="gini = 0.5\nsamples = 2\nvalue = [0, 1, 0, 0, 0, 0, 0, 0, 0, 1, 0]"] ;
401 -> 403 ;
404 [label="gini = 0.0\nsamples = 1\nvalue = [0, 0, 0, 0, 1, 0, 0, 0, 0, 0, 0]"] ;
396 -> 404 ;
405 [label="X[50] <= 4.5\ngini = 0.6023\nsamples = 107\nvalue = [2, 4, 1, 3, 15, 4, 4, 1, 2, 65, 6]"] ;
395 -> 405 ;
406 [label="X[51] <= 1.5\ngini = 0.4161\nsamples = 57\nvalue = [1, 2, 0, 1, 6, 1, 1, 0, 0, 43, 2]"] ;
405 -> 406 ;
407 [label="X[47] <= 2010.5\ngini = 0.6593\nsamples = 19\nvalue = [1, 2, 0, 1, 4, 0, 0, 0, 0, 10, 1]"] ;
406 -> 407 ;
408 [label="gini = 0.4444\nsamples = 3\nvalue = [0, 2, 0, 0, 0, 0, 0, 0, 0, 1, 0]"] ;
407 -> 408 ;
409 [label="gini = 0.6094\nsamples = 16\nvalue = [1, 0, 0, 1, 4, 0, 0, 0, 0, 9, 1]"] ;
407 -> 409 ;
410 [label="X[54] <= 64.5\ngini = 0.241\nsamples = 38\nvalue = [0, 0, 0, 0, 2, 1, 1, 0, 0, 33, 1]"] ;
406 -> 410 ;
411 [label="gini = 0.2001\nsamples = 37\nvalue = [0, 0, 0, 0, 2, 1, 0, 0, 0, 33, 1]"] ;
410 -> 411 ;
412 [label="gini = 0.0\nsamples = 1\nvalue = [0, 0, 0, 0, 0, 0, 1, 0, 0, 0, 0]"] ;
410 -> 412 ;
413 [label="X[18] <= 0.5\ngini = 0.7544\nsamples = 50\nvalue = [1, 2, 1, 2, 9, 3, 3, 1, 2, 22, 4]"] ;
405 -> 413 ;
414 [label="X[54] <= 27.5\ngini = 0.7177\nsamples = 42\nvalue = [1, 2, 1, 2, 5, 2, 3, 1, 2, 21, 2]"] ;
413 -> 414 ;
415 [label="gini = 0.7778\nsamples = 6\nvalue = [0, 1, 0, 1, 1, 0, 0, 0, 1, 0, 2]"] ;
414 -> 415 ;
416 [label="gini = 0.6327\nsamples = 36\nvalue = [1, 1, 1, 1, 4, 2, 3, 1, 1, 21, 0]"] ;
414 -> 416 ;
417 [label="X[53] <= 18.5\ngini = 0.6563\nsamples = 8\nvalue = [0, 0, 0, 0, 4, 1, 0, 0, 0, 1, 2]"] ;
413 -> 417 ;
418 [label="gini = 0.6667\nsamples = 3\nvalue = [0, 0, 0, 0, 0, 1, 0, 0, 0, 1, 1]"] ;
417 -> 418 ;
419 [label="gini = 0.32\nsamples = 5\nvalue = [0, 0, 0, 0, 4, 0, 0, 0, 0, 0, 1]"] ;
417 -> 419 ;
420 [label="X[52] <= 1.5\ngini = 0.6099\nsamples = 916\nvalue = [3, 23, 15, 39, 85, 27, 33, 12, 3, 547, 129]"] ;
394 -> 420 ;
421 [label="X[53] <= 10.5\ngini = 0.5264\nsamples = 283\nvalue = [0, 3, 5, 10, 23, 4, 9, 2, 0, 189, 38]"] ;
420 -> 421 ;
422 [label="X[53] <= 6.5\ngini = 0.6139\nsamples = 132\nvalue = [0, 2, 2, 5, 10, 3, 5, 1, 0, 76, 28]"] ;
421 -> 422 ;
423 [label="X[23] <= 0.5\ngini = 0.5569\nsamples = 109\nvalue = [0, 1, 1, 3, 8, 2, 5, 0, 0, 69, 20]"] ;
422 -> 423 ;
424 [label="gini = 0.5383\nsamples = 93\nvalue = [0, 1, 1, 3, 6, 2, 5, 0, 0, 61, 14]"] ;
423 -> 424 ;
425 [label="gini = 0.5938\nsamples = 16\nvalue = [0, 0, 0, 0, 2, 0, 0, 0, 0, 8, 6]"] ;
423 -> 425 ;
426 [label="X[23] <= 0.5\ngini = 0.7637\nsamples = 23\nvalue = [0, 1, 1, 2, 2, 1, 0, 1, 0, 7, 8]"] ;
422 -> 426 ;
427 [label="gini = 0.77\nsamples = 20\nvalue = [0, 1, 1, 2, 2, 1, 0, 1, 0, 4, 8]"] ;
426 -> 427 ;
428 [label="gini = 0.0\nsamples = 3\nvalue = [0, 0, 0, 0, 0, 0, 0, 0, 0, 3, 0]"] ;
426 -> 428 ;
429 [label="X[54] <= 23.5\ngini = 0.4259\nsamples = 151\nvalue = [0, 1, 3, 5, 13, 1, 4, 1, 0, 113, 10]"] ;
421 -> 429 ;
430 [label="X[52] <= 0.5\ngini = 0.75\nsamples = 4\nvalue = [0, 0, 1, 0, 0, 1, 0, 1, 0, 1, 0]"] ;
429 -> 430 ;
431 [label="gini = 0.6667\nsamples = 3\nvalue = [0, 0, 1, 0, 0, 0, 0, 1, 0, 1, 0]"] ;
430 -> 431 ;
432 [label="gini = 0.0\nsamples = 1\nvalue = [0, 0, 0, 0, 0, 1, 0, 0, 0, 0, 0]"] ;
430 -> 432 ;
433 [label="X[34] <= 0.5\ngini = 0.4049\nsamples = 147\nvalue = [0, 1, 2, 5, 13, 0, 4, 0, 0, 112, 10]"] ;
429 -> 433 ;
434 [label="gini = 0.3976\nsamples = 146\nvalue = [0, 1, 2, 5, 13, 0, 4, 0, 0, 112, 9]"] ;
433 -> 434 ;
435 [label="gini = 0.0\nsamples = 1\nvalue = [0, 0, 0, 0, 0, 0, 0, 0, 0, 0, 1]"] ;
433 -> 435 ;
436 [label="X[54] <= 55.5\ngini = 0.6435\nsamples = 633\nvalue = [3, 20, 10, 29, 62, 23, 24, 10, 3, 358, 91]"] ;
420 -> 436 ;
437 [label="X[52] <= 3.5\ngini = 0.6287\nsamples = 550\nvalue = [3, 18, 10, 23, 51, 19, 21, 9, 2, 320, 74]"] ;
436 -> 437 ;
438 [label="X[9] <= 0.5\ngini = 0.6813\nsamples = 242\nvalue = [2, 11, 7, 11, 29, 11, 7, 1, 1, 127, 35]"] ;
437 -> 438 ;
439 [label="gini = 0.6749\nsamples = 238\nvalue = [2, 11, 7, 11, 27, 11, 7, 1, 1, 127, 33]"] ;
438 -> 439 ;
440 [label="gini = 0.5\nsamples = 4\nvalue = [0, 0, 0, 0, 2, 0, 0, 0, 0, 0, 2]"] ;
438 -> 440 ;
441 [label="X[53] <= 8.5\ngini = 0.5806\nsamples = 308\nvalue = [1, 7, 3, 12, 22, 8, 14, 8, 1, 193, 39]"] ;
437 -> 441 ;
442 [label="gini = 0.4959\nsamples = 138\nvalue = [0, 3, 1, 7, 4, 1, 6, 4, 0, 96, 16]"] ;
441 -> 442 ;
443 [label="gini = 0.6388\nsamples = 170\nvalue = [1, 4, 2, 5, 18, 7, 8, 4, 1, 97, 23]"] ;
441 -> 443 ;
444 [label="X[54] <= 57.5\ngini = 0.7211\nsamples = 83\nvalue = [0, 2, 0, 6, 11, 4, 3, 1, 1, 38, 17]"] ;
436 -> 444 ;
445 [label="X[2] <= 0.5\ngini = 0.7674\nsamples = 24\nvalue = [0, 1, 0, 0, 3, 3, 1, 0, 1, 7, 8]"] ;
444 -> 445 ;
446 [label="gini = 0.7346\nsamples = 18\nvalue = [0, 1, 0, 0, 1, 3, 1, 0, 1, 3, 8]"] ;
445 -> 446 ;
447 [label="gini = 0.4444\nsamples = 6\nvalue = [0, 0, 0, 0, 2, 0, 0, 0, 0, 4, 0]"] ;
445 -> 447 ;
448 [label="X[53] <= 0.5\ngini = 0.6699\nsamples = 59\nvalue = [0, 1, 0, 6, 8, 1, 2, 1, 0, 31, 9]"] ;
444 -> 448 ;
449 [label="gini = 0.4444\nsamples = 3\nvalue = [0, 0, 0, 0, 2, 0, 0, 0, 0, 0, 1]"] ;
448 -> 449 ;
450 [label="gini = 0.648\nsamples = 56\nvalue = [0, 1, 0, 6, 6, 1, 2, 1, 0, 31, 8]"] ;
448 -> 450 ;
451 [label="X[50] <= 2.5\ngini = 0.7069\nsamples = 58\nvalue = [0, 0, 0, 1, 11, 1, 3, 2, 0, 25, 15]"] ;
393 -> 451 ;
452 [label="X[48] <= 2012.5\ngini = 0.6633\nsamples = 14\nvalue = [0, 0, 0, 0, 6, 0, 1, 0, 0, 2, 5]"] ;
451 -> 452 ;
453 [label="X[53] <= 18.5\ngini = 0.4938\nsamples = 9\nvalue = [0, 0, 0, 0, 6, 0, 0, 0, 0, 2, 1]"] ;
452 -> 453 ;
454 [label="X[11] <= 0.5\ngini = 0.2449\nsamples = 7\nvalue = [0, 0, 0, 0, 6, 0, 0, 0, 0, 1, 0]"] ;
453 -> 454 ;
455 [label="gini = 0.0\nsamples = 6\nvalue = [0, 0, 0, 0, 6, 0, 0, 0, 0, 0, 0]"] ;
454 -> 455 ;
456 [label="gini = 0.0\nsamples = 1\nvalue = [0, 0, 0, 0, 0, 0, 0, 0, 0, 1, 0]"] ;
454 -> 456 ;
457 [label="X[40] <= 0.5\ngini = 0.5\nsamples = 2\nvalue = [0, 0, 0, 0, 0, 0, 0, 0, 0, 1, 1]"] ;
453 -> 457 ;
458 [label="gini = 0.0\nsamples = 1\nvalue = [0, 0, 0, 0, 0, 0, 0, 0, 0, 0, 1]"] ;
457 -> 458 ;
459 [label="gini = 0.0\nsamples = 1\nvalue = [0, 0, 0, 0, 0, 0, 0, 0, 0, 1, 0]"] ;
457 -> 459 ;
460 [label="X[23] <= 0.5\ngini = 0.32\nsamples = 5\nvalue = [0, 0, 0, 0, 0, 0, 1, 0, 0, 0, 4]"] ;
452 -> 460 ;
461 [label="gini = 0.0\nsamples = 4\nvalue = [0, 0, 0, 0, 0, 0, 0, 0, 0, 0, 4]"] ;
460 -> 461 ;
462 [label="gini = 0.0\nsamples = 1\nvalue = [0, 0, 0, 0, 0, 0, 1, 0, 0, 0, 0]"] ;
460 -> 462 ;
463 [label="X[2] <= 0.5\ngini = 0.657\nsamples = 44\nvalue = [0, 0, 0, 1, 5, 1, 2, 2, 0, 23, 10]"] ;
451 -> 463 ;
464 [label="X[54] <= 71.5\ngini = 0.74\nsamples = 30\nvalue = [0, 0, 0, 1, 4, 1, 2, 2, 0, 12, 8]"] ;
463 -> 464 ;
465 [label="X[48] <= 2012.5\ngini = 0.6531\nsamples = 14\nvalue = [0, 0, 0, 1, 1, 0, 1, 0, 0, 4, 7]"] ;
464 -> 465 ;
466 [label="X[53] <= 6.5\ngini = 0.6667\nsamples = 6\nvalue = [0, 0, 0, 1, 0, 0, 1, 0, 0, 3, 1]"] ;
465 -> 466 ;
467 [label="gini = 0.6667\nsamples = 3\nvalue = [0, 0, 0, 1, 0, 0, 1, 0, 0, 0, 1]"] ;
466 -> 467 ;
468 [label="gini = 0.0\nsamples = 3\nvalue = [0, 0, 0, 0, 0, 0, 0, 0, 0, 3, 0]"] ;
466 -> 468 ;
469 [label="X[49] <= 3.5\ngini = 0.4063\nsamples = 8\nvalue = [0, 0, 0, 0, 1, 0, 0, 0, 0, 1, 6]"] ;
465 -> 469 ;
470 [label="gini = 0.0\nsamples = 1\nvalue = [0, 0, 0, 0, 1, 0, 0, 0, 0, 0, 0]"] ;
469 -> 470 ;
471 [label="gini = 0.2449\nsamples = 7\nvalue = [0, 0, 0, 0, 0, 0, 0, 0, 0, 1, 6]"] ;
469 -> 471 ;
472 [label="X[0] <= 0.5\ngini = 0.6875\nsamples = 16\nvalue = [0, 0, 0, 0, 3, 1, 1, 2, 0, 8, 1]"] ;
464 -> 472 ;
473 [label="X[54] <= 78.5\ngini = 0.602\nsamples = 14\nvalue = [0, 0, 0, 0, 3, 0, 0, 2, 0, 8, 1]"] ;
472 -> 473 ;
474 [label="gini = 0.4861\nsamples = 12\nvalue = [0, 0, 0, 0, 3, 0, 0, 1, 0, 8, 0]"] ;
473 -> 474 ;
475 [label="gini = 0.5\nsamples = 2\nvalue = [0, 0, 0, 0, 0, 0, 0, 1, 0, 0, 1]"] ;
473 -> 475 ;
476 [label="X[52] <= 2.0\ngini = 0.5\nsamples = 2\nvalue = [0, 0, 0, 0, 0, 1, 1, 0, 0, 0, 0]"] ;
472 -> 476 ;
477 [label="gini = 0.0\nsamples = 1\nvalue = [0, 0, 0, 0, 0, 1, 0, 0, 0, 0, 0]"] ;
476 -> 477 ;
478 [label="gini = 0.0\nsamples = 1\nvalue = [0, 0, 0, 0, 0, 0, 1, 0, 0, 0, 0]"] ;
476 -> 478 ;
479 [label="X[53] <= 20.5\ngini = 0.3571\nsamples = 14\nvalue = [0, 0, 0, 0, 1, 0, 0, 0, 0, 11, 2]"] ;
463 -> 479 ;
480 [label="X[53] <= 1.5\ngini = 0.1653\nsamples = 11\nvalue = [0, 0, 0, 0, 1, 0, 0, 0, 0, 10, 0]"] ;
479 -> 480 ;
481 [label="X[53] <= 0.5\ngini = 0.5\nsamples = 2\nvalue = [0, 0, 0, 0, 1, 0, 0, 0, 0, 1, 0]"] ;
480 -> 481 ;
482 [label="gini = 0.0\nsamples = 1\nvalue = [0, 0, 0, 0, 0, 0, 0, 0, 0, 1, 0]"] ;
481 -> 482 ;
483 [label="gini = 0.0\nsamples = 1\nvalue = [0, 0, 0, 0, 1, 0, 0, 0, 0, 0, 0]"] ;
481 -> 483 ;
484 [label="gini = 0.0\nsamples = 9\nvalue = [0, 0, 0, 0, 0, 0, 0, 0, 0, 9, 0]"] ;
480 -> 484 ;
485 [label="X[54] <= 71.0\ngini = 0.4444\nsamples = 3\nvalue = [0, 0, 0, 0, 0, 0, 0, 0, 0, 1, 2]"] ;
479 -> 485 ;
486 [label="gini = 0.0\nsamples = 2\nvalue = [0, 0, 0, 0, 0, 0, 0, 0, 0, 0, 2]"] ;
485 -> 486 ;
487 [label="gini = 0.0\nsamples = 1\nvalue = [0, 0, 0, 0, 0, 0, 0, 0, 0, 1, 0]"] ;
485 -> 487 ;
488 [label="X[14] <= 0.5\ngini = 0.5508\nsamples = 1472\nvalue = [14, 25, 27, 34, 88, 41, 50, 16, 3, 954, 220]"] ;
392 -> 488 ;
489 [label="X[47] <= 2010.5\ngini = 0.5628\nsamples = 1343\nvalue = [13, 24, 27, 32, 81, 39, 46, 15, 3, 856, 207]"] ;
488 -> 489 ;
490 [label="X[53] <= 0.5\ngini = 0.31\nsamples = 46\nvalue = [0, 1, 0, 0, 3, 1, 1, 0, 0, 38, 2]"] ;
489 -> 490 ;
491 [label="gini = 0.0\nsamples = 1\nvalue = [0, 0, 0, 0, 0, 0, 1, 0, 0, 0, 0]"] ;
490 -> 491 ;
492 [label="X[49] <= 10.5\ngini = 0.2795\nsamples = 45\nvalue = [0, 1, 0, 0, 3, 1, 0, 0, 0, 38, 2]"] ;
490 -> 492 ;
493 [label="X[53] <= 22.5\ngini = 0.169\nsamples = 33\nvalue = [0, 1, 0, 0, 2, 0, 0, 0, 0, 30, 0]"] ;
492 -> 493 ;
494 [label="X[13] <= 0.5\ngini = 0.1228\nsamples = 31\nvalue = [0, 1, 0, 0, 1, 0, 0, 0, 0, 29, 0]"] ;
493 -> 494 ;
495 [label="gini = 0.0\nsamples = 19\nvalue = [0, 0, 0, 0, 0, 0, 0, 0, 0, 19, 0]"] ;
494 -> 495 ;
496 [label="gini = 0.2917\nsamples = 12\nvalue = [0, 1, 0, 0, 1, 0, 0, 0, 0, 10, 0]"] ;
494 -> 496 ;
497 [label="X[34] <= 0.5\ngini = 0.5\nsamples = 2\nvalue = [0, 0, 0, 0, 1, 0, 0, 0, 0, 1, 0]"] ;
493 -> 497 ;
498 [label="gini = 0.0\nsamples = 1\nvalue = [0, 0, 0, 0, 1, 0, 0, 0, 0, 0, 0]"] ;
497 -> 498 ;
499 [label="gini = 0.0\nsamples = 1\nvalue = [0, 0, 0, 0, 0, 0, 0, 0, 0, 1, 0]"] ;
497 -> 499 ;
500 [label="X[46] <= 0.5\ngini = 0.5139\nsamples = 12\nvalue = [0, 0, 0, 0, 1, 1, 0, 0, 0, 8, 2]"] ;
492 -> 500 ;
501 [label="gini = 0.0\nsamples = 2\nvalue = [0, 0, 0, 0, 0, 0, 0, 0, 0, 0, 2]"] ;
500 -> 501 ;
502 [label="X[53] <= 6.0\ngini = 0.34\nsamples = 10\nvalue = [0, 0, 0, 0, 1, 1, 0, 0, 0, 8, 0]"] ;
500 -> 502 ;
503 [label="gini = 0.625\nsamples = 4\nvalue = [0, 0, 0, 0, 1, 1, 0, 0, 0, 2, 0]"] ;
502 -> 503 ;
504 [label="gini = 0.0\nsamples = 6\nvalue = [0, 0, 0, 0, 0, 0, 0, 0, 0, 6, 0]"] ;
502 -> 504 ;
505 [label="X[53] <= 2.5\ngini = 0.57\nsamples = 1297\nvalue = [13, 23, 27, 32, 78, 38, 45, 15, 3, 818, 205]"] ;
489 -> 505 ;
506 [label="X[52] <= 4.5\ngini = 0.4661\nsamples = 211\nvalue = [3, 4, 2, 2, 9, 6, 6, 0, 0, 151, 28]"] ;
505 -> 506 ;
507 [label="X[54] <= 58.5\ngini = 0.4335\nsamples = 159\nvalue = [1, 4, 1, 2, 5, 5, 6, 0, 0, 118, 17]"] ;
506 -> 507 ;
508 [label="X[54] <= 23.5\ngini = 0.3968\nsamples = 143\nvalue = [1, 3, 0, 2, 5, 4, 6, 0, 0, 110, 12]"] ;
507 -> 508 ;
509 [label="gini = 0.68\nsamples = 10\nvalue = [0, 1, 0, 0, 0, 1, 2, 0, 0, 5, 1]"] ;
508 -> 509 ;
510 [label="gini = 0.3666\nsamples = 133\nvalue = [1, 2, 0, 2, 5, 3, 4, 0, 0, 105, 11]"] ;
508 -> 510 ;
511 [label="X[49] <= 7.5\ngini = 0.6406\nsamples = 16\nvalue = [0, 1, 1, 0, 0, 1, 0, 0, 0, 8, 5]"] ;
507 -> 511 ;
512 [label="gini = 0.5\nsamples = 2\nvalue = [0, 1, 0, 0, 0, 0, 0, 0, 0, 0, 1]"] ;
511 -> 512 ;
513 [label="gini = 0.5816\nsamples = 14\nvalue = [0, 0, 1, 0, 0, 1, 0, 0, 0, 8, 4]"] ;
511 -> 513 ;
514 [label="X[0] <= 0.5\ngini = 0.5444\nsamples = 52\nvalue = [2, 0, 1, 0, 4, 1, 0, 0, 0, 33, 11]"] ;
506 -> 514 ;
515 [label="X[54] <= 52.0\ngini = 0.4425\nsamples = 45\nvalue = [1, 0, 0, 0, 2, 0, 0, 0, 0, 32, 10]"] ;
514 -> 515 ;
516 [label="gini = 0.5192\nsamples = 35\nvalue = [1, 0, 0, 0, 2, 0, 0, 0, 0, 22, 10]"] ;
515 -> 516 ;
517 [label="gini = 0.0\nsamples = 10\nvalue = [0, 0, 0, 0, 0, 0, 0, 0, 0, 10, 0]"] ;
515 -> 517 ;
518 [label="X[22] <= 3.5\ngini = 0.8163\nsamples = 7\nvalue = [1, 0, 1, 0, 2, 1, 0, 0, 0, 1, 1]"] ;
514 -> 518 ;
519 [label="gini = 0.4444\nsamples = 3\nvalue = [0, 0, 0, 0, 2, 1, 0, 0, 0, 0, 0]"] ;
518 -> 519 ;
520 [label="gini = 0.75\nsamples = 4\nvalue = [1, 0, 1, 0, 0, 0, 0, 0, 0, 1, 1]"] ;
518 -> 520 ;
521 [label="X[49] <= 10.5\ngini = 0.5881\nsamples = 1086\nvalue = [10, 19, 25, 30, 69, 32, 39, 15, 3, 667, 177]"] ;
505 -> 521 ;
522 [label="X[54] <= 81.5\ngini = 0.5848\nsamples = 829\nvalue = [7, 17, 19, 26, 58, 26, 29, 13, 2, 515, 117]"] ;
521 -> 522 ;
523 [label="X[17] <= 0.5\ngini = 0.5829\nsamples = 827\nvalue = [7, 17, 19, 25, 58, 25, 29, 13, 2, 515, 117]"] ;
522 -> 523 ;
524 [label="gini = 0.6064\nsamples = 398\nvalue = [3, 10, 14, 14, 26, 7, 13, 4, 1, 237, 69]"] ;
523 -> 524 ;
525 [label="gini = 0.5572\nsamples = 429\nvalue = [4, 7, 5, 11, 32, 18, 16, 9, 1, 278, 48]"] ;
523 -> 525 ;
526 [label="X[6] <= 0.5\ngini = 0.5\nsamples = 2\nvalue = [0, 0, 0, 1, 0, 1, 0, 0, 0, 0, 0]"] ;
522 -> 526 ;
527 [label="gini = 0.0\nsamples = 1\nvalue = [0, 0, 0, 0, 0, 1, 0, 0, 0, 0, 0]"] ;
526 -> 527 ;
528 [label="gini = 0.0\nsamples = 1\nvalue = [0, 0, 0, 1, 0, 0, 0, 0, 0, 0, 0]"] ;
526 -> 528 ;
529 [label="X[53] <= 9.5\ngini = 0.5907\nsamples = 257\nvalue = [3, 2, 6, 4, 11, 6, 10, 2, 1, 152, 60]"] ;
521 -> 529 ;
530 [label="X[1] <= 0.5\ngini = 0.6414\nsamples = 100\nvalue = [1, 1, 4, 0, 3, 3, 5, 1, 0, 50, 32]"] ;
529 -> 530 ;
531 [label="gini = 0.6369\nsamples = 96\nvalue = [1, 1, 4, 0, 3, 3, 5, 1, 0, 50, 28]"] ;
530 -> 531 ;
532 [label="gini = 0.0\nsamples = 4\nvalue = [0, 0, 0, 0, 0, 0, 0, 0, 0, 0, 4]"] ;
530 -> 532 ;
533 [label="X[54] <= 32.5\ngini = 0.541\nsamples = 157\nvalue = [2, 1, 2, 4, 8, 3, 5, 1, 1, 102, 28]"] ;
529 -> 533 ;
534 [label="gini = 0.5469\nsamples = 48\nvalue = [1, 0, 1, 0, 2, 1, 0, 0, 0, 29, 14]"] ;
533 -> 534 ;
535 [label="gini = 0.5277\nsamples = 109\nvalue = [1, 1, 1, 4, 6, 2, 5, 1, 1, 73, 14]"] ;
533 -> 535 ;
536 [label="X[53] <= 22.5\ngini = 0.4081\nsamples = 129\nvalue = [1, 1, 0, 2, 7, 2, 4, 1, 0, 98, 13]"] ;
488 -> 536 ;
537 [label="X[54] <= 42.5\ngini = 0.3759\nsamples = 124\nvalue = [1, 1, 0, 1, 7, 2, 3, 1, 0, 97, 11]"] ;
536 -> 537 ;
538 [label="X[46] <= 0.5\ngini = 0.2588\nsamples = 70\nvalue = [1, 0, 0, 0, 2, 1, 1, 0, 0, 60, 5]"] ;
537 -> 538 ;
539 [label="X[0] <= 0.5\ngini = 0.4688\nsamples = 8\nvalue = [0, 0, 0, 0, 0, 0, 0, 0, 0, 5, 3]"] ;
538 -> 539 ;
540 [label="X[54] <= 37.5\ngini = 0.4082\nsamples = 7\nvalue = [0, 0, 0, 0, 0, 0, 0, 0, 0, 5, 2]"] ;
539 -> 540 ;
541 [label="gini = 0.0\nsamples = 4\nvalue = [0, 0, 0, 0, 0, 0, 0, 0, 0, 4, 0]"] ;
540 -> 541 ;
542 [label="gini = 0.4444\nsamples = 3\nvalue = [0, 0, 0, 0, 0, 0, 0, 0, 0, 1, 2]"] ;
540 -> 542 ;
543 [label="gini = 0.0\nsamples = 1\nvalue = [0, 0, 0, 0, 0, 0, 0, 0, 0, 0, 1]"] ;
539 -> 543 ;
544 [label="X[54] <= 25.0\ngini = 0.2102\nsamples = 62\nvalue = [1, 0, 0, 0, 2, 1, 1, 0, 0, 55, 2]"] ;
538 -> 544 ;
545 [label="X[54] <= 18.5\ngini = 0.5185\nsamples = 9\nvalue = [1, 0, 0, 0, 1, 1, 0, 0, 0, 6, 0]"] ;
544 -> 545 ;
546 [label="gini = 0.0\nsamples = 4\nvalue = [0, 0, 0, 0, 0, 0, 0, 0, 0, 4, 0]"] ;
545 -> 546 ;
547 [label="gini = 0.72\nsamples = 5\nvalue = [1, 0, 0, 0, 1, 1, 0, 0, 0, 2, 0]"] ;
545 -> 547 ;
548 [label="X[52] <= 2.5\ngini = 0.1431\nsamples = 53\nvalue = [0, 0, 0, 0, 1, 0, 1, 0, 0, 49, 2]"] ;
544 -> 548 ;
549 [label="gini = 0.2751\nsamples = 26\nvalue = [0, 0, 0, 0, 1, 0, 1, 0, 0, 22, 2]"] ;
548 -> 549 ;
550 [label="gini = 0.0\nsamples = 27\nvalue = [0, 0, 0, 0, 0, 0, 0, 0, 0, 27, 0]"] ;
548 -> 550 ;
551 [label="X[54] <= 43.5\ngini = 0.5069\nsamples = 54\nvalue = [0, 1, 0, 1, 5, 1, 2, 1, 0, 37, 6]"] ;
537 -> 551 ;
552 [label="X[53] <= 13.0\ngini = 0.5\nsamples = 2\nvalue = [0, 0, 0, 0, 1, 0, 0, 0, 0, 0, 1]"] ;
551 -> 552 ;
553 [label="gini = 0.0\nsamples = 1\nvalue = [0, 0, 0, 0, 0, 0, 0, 0, 0, 0, 1]"] ;
552 -> 553 ;
554 [label="gini = 0.0\nsamples = 1\nvalue = [0, 0, 0, 0, 1, 0, 0, 0, 0, 0, 0]"] ;
552 -> 554 ;
555 [label="X[1] <= 0.5\ngini = 0.4756\nsamples = 52\nvalue = [0, 1, 0, 1, 4, 1, 2, 1, 0, 37, 5]"] ;
551 -> 555 ;
556 [label="X[51] <= 3.5\ngini = 0.4552\nsamples = 51\nvalue = [0, 0, 0, 1, 4, 1, 2, 1, 0, 37, 5]"] ;
555 -> 556 ;
557 [label="gini = 0.2751\nsamples = 26\nvalue = [0, 0, 0, 0, 0, 0, 2, 1, 0, 22, 1]"] ;
556 -> 557 ;
558 [label="gini = 0.5856\nsamples = 25\nvalue = [0, 0, 0, 1, 4, 1, 0, 0, 0, 15, 4]"] ;
556 -> 558 ;
559 [label="gini = 0.0\nsamples = 1\nvalue = [0, 1, 0, 0, 0, 0, 0, 0, 0, 0, 0]"] ;
555 -> 559 ;
560 [label="X[22] <= 3.5\ngini = 0.72\nsamples = 5\nvalue = [0, 0, 0, 1, 0, 0, 1, 0, 0, 1, 2]"] ;
536 -> 560 ;
561 [label="X[52] <= 1.0\ngini = 0.4444\nsamples = 3\nvalue = [0, 0, 0, 1, 0, 0, 0, 0, 0, 0, 2]"] ;
560 -> 561 ;
562 [label="gini = 0.0\nsamples = 1\nvalue = [0, 0, 0, 1, 0, 0, 0, 0, 0, 0, 0]"] ;
561 -> 562 ;
563 [label="gini = 0.0\nsamples = 2\nvalue = [0, 0, 0, 0, 0, 0, 0, 0, 0, 0, 2]"] ;
561 -> 563 ;
564 [label="X[54] <= 55.0\ngini = 0.5\nsamples = 2\nvalue = [0, 0, 0, 0, 0, 0, 1, 0, 0, 1, 0]"] ;
560 -> 564 ;
565 [label="gini = 0.0\nsamples = 1\nvalue = [0, 0, 0, 0, 0, 0, 0, 0, 0, 1, 0]"] ;
564 -> 565 ;
566 [label="gini = 0.0\nsamples = 1\nvalue = [0, 0, 0, 0, 0, 0, 1, 0, 0, 0, 0]"] ;
564 -> 566 ;
567 [label="X[52] <= 0.5\ngini = 0.5038\nsamples = 956\nvalue = [7, 13, 12, 14, 46, 33, 29, 7, 3, 656, 136]"] ;
391 -> 567 ;
568 [label="X[54] <= 79.5\ngini = 0.3888\nsamples = 151\nvalue = [1, 0, 2, 5, 2, 5, 4, 2, 0, 117, 13]"] ;
567 -> 568 ;
569 [label="X[38] <= 0.5\ngini = 0.3807\nsamples = 150\nvalue = [1, 0, 2, 5, 1, 5, 4, 2, 0, 117, 13]"] ;
568 -> 569 ;
570 [label="X[1] <= 0.5\ngini = 0.3728\nsamples = 149\nvalue = [1, 0, 2, 5, 1, 4, 4, 2, 0, 117, 13]"] ;
569 -> 570 ;
571 [label="X[40] <= 0.5\ngini = 0.3654\nsamples = 148\nvalue = [1, 0, 2, 5, 1, 4, 4, 2, 0, 117, 12]"] ;
570 -> 571 ;
572 [label="X[54] <= 67.5\ngini = 0.3578\nsamples = 147\nvalue = [1, 0, 2, 5, 1, 4, 4, 2, 0, 117, 11]"] ;
571 -> 572 ;
573 [label="X[53] <= 21.5\ngini = 0.3393\nsamples = 141\nvalue = [1, 0, 2, 4, 1, 4, 4, 2, 0, 114, 9]"] ;
572 -> 573 ;
574 [label="gini = 0.302\nsamples = 125\nvalue = [1, 0, 2, 3, 1, 2, 2, 2, 0, 104, 8]"] ;
573 -> 574 ;
575 [label="gini = 0.5703\nsamples = 16\nvalue = [0, 0, 0, 1, 0, 2, 2, 0, 0, 10, 1]"] ;
573 -> 575 ;
576 [label="X[18] <= 0.5\ngini = 0.6111\nsamples = 6\nvalue = [0, 0, 0, 1, 0, 0, 0, 0, 0, 3, 2]"] ;
572 -> 576 ;
577 [label="gini = 0.0\nsamples = 2\nvalue = [0, 0, 0, 0, 0, 0, 0, 0, 0, 0, 2]"] ;
576 -> 577 ;
578 [label="gini = 0.375\nsamples = 4\nvalue = [0, 0, 0, 1, 0, 0, 0, 0, 0, 3, 0]"] ;
576 -> 578 ;
579 [label="gini = 0.0\nsamples = 1\nvalue = [0, 0, 0, 0, 0, 0, 0, 0, 0, 0, 1]"] ;
571 -> 579 ;
580 [label="gini = 0.0\nsamples = 1\nvalue = [0, 0, 0, 0, 0, 0, 0, 0, 0, 0, 1]"] ;
570 -> 580 ;
581 [label="gini = 0.0\nsamples = 1\nvalue = [0, 0, 0, 0, 0, 1, 0, 0, 0, 0, 0]"] ;
569 -> 581 ;
582 [label="gini = 0.0\nsamples = 1\nvalue = [0, 0, 0, 0, 1, 0, 0, 0, 0, 0, 0]"] ;
568 -> 582 ;
583 [label="X[51] <= 5.5\ngini = 0.5225\nsamples = 805\nvalue = [6, 13, 10, 9, 44, 28, 25, 5, 3, 539, 123]"] ;
567 -> 583 ;
584 [label="X[46] <= 0.5\ngini = 0.5063\nsamples = 683\nvalue = [4, 11, 8, 6, 35, 28, 18, 5, 3, 467, 98]"] ;
583 -> 584 ;
585 [label="X[50] <= 1.5\ngini = 0.6722\nsamples = 33\nvalue = [0, 1, 0, 0, 3, 0, 3, 0, 1, 16, 9]"] ;
584 -> 585 ;
586 [label="X[13] <= 0.5\ngini = 0.4444\nsamples = 3\nvalue = [0, 0, 0, 0, 0, 0, 0, 0, 1, 0, 2]"] ;
585 -> 586 ;
587 [label="gini = 0.0\nsamples = 1\nvalue = [0, 0, 0, 0, 0, 0, 0, 0, 1, 0, 0]"] ;
586 -> 587 ;
588 [label="gini = 0.0\nsamples = 2\nvalue = [0, 0, 0, 0, 0, 0, 0, 0, 0, 0, 2]"] ;
586 -> 588 ;
589 [label="X[45] <= 0.5\ngini = 0.64\nsamples = 30\nvalue = [0, 1, 0, 0, 3, 0, 3, 0, 0, 16, 7]"] ;
585 -> 589 ;
590 [label="X[51] <= 4.5\ngini = 0.5319\nsamples = 19\nvalue = [0, 0, 0, 0, 0, 0, 3, 0, 0, 12, 4]"] ;
589 -> 590 ;
591 [label="X[54] <= 35.5\ngini = 0.4178\nsamples = 15\nvalue = [0, 0, 0, 0, 0, 0, 1, 0, 0, 11, 3]"] ;
590 -> 591 ;
592 [label="gini = 0.4898\nsamples = 7\nvalue = [0, 0, 0, 0, 0, 0, 0, 0, 0, 4, 3]"] ;
591 -> 592 ;
593 [label="gini = 0.2188\nsamples = 8\nvalue = [0, 0, 0, 0, 0, 0, 1, 0, 0, 7, 0]"] ;
591 -> 593 ;
594 [label="X[53] <= 16.5\ngini = 0.625\nsamples = 4\nvalue = [0, 0, 0, 0, 0, 0, 2, 0, 0, 1, 1]"] ;
590 -> 594 ;
595 [label="gini = 0.5\nsamples = 2\nvalue = [0, 0, 0, 0, 0, 0, 0, 0, 0, 1, 1]"] ;
594 -> 595 ;
596 [label="gini = 0.0\nsamples = 2\nvalue = [0, 0, 0, 0, 0, 0, 2, 0, 0, 0, 0]"] ;
594 -> 596 ;
597 [label="X[49] <= 4.5\ngini = 0.7107\nsamples = 11\nvalue = [0, 1, 0, 0, 3, 0, 0, 0, 0, 4, 3]"] ;
589 -> 597 ;
598 [label="X[50] <= 2.5\ngini = 0.5714\nsamples = 7\nvalue = [0, 0, 0, 0, 1, 0, 0, 0, 0, 4, 2]"] ;
597 -> 598 ;
599 [label="gini = 0.625\nsamples = 4\nvalue = [0, 0, 0, 0, 1, 0, 0, 0, 0, 1, 2]"] ;
598 -> 599 ;
600 [label="gini = 0.0\nsamples = 3\nvalue = [0, 0, 0, 0, 0, 0, 0, 0, 0, 3, 0]"] ;
598 -> 600 ;
601 [label="X[54] <= 46.5\ngini = 0.625\nsamples = 4\nvalue = [0, 1, 0, 0, 2, 0, 0, 0, 0, 0, 1]"] ;
597 -> 601 ;
602 [label="gini = 0.0\nsamples = 2\nvalue = [0, 0, 0, 0, 2, 0, 0, 0, 0, 0, 0]"] ;
601 -> 602 ;
603 [label="gini = 0.5\nsamples = 2\nvalue = [0, 1, 0, 0, 0, 0, 0, 0, 0, 0, 1]"] ;
601 -> 603 ;
604 [label="X[54] <= 57.5\ngini = 0.4944\nsamples = 650\nvalue = [4, 10, 8, 6, 32, 28, 15, 5, 2, 451, 89]"] ;
584 -> 604 ;
605 [label="X[54] <= 17.5\ngini = 0.4762\nsamples = 571\nvalue = [3, 9, 6, 6, 27, 21, 15, 5, 2, 405, 72]"] ;
604 -> 605 ;
606 [label="gini = 0.0\nsamples = 1\nvalue = [0, 0, 0, 0, 0, 1, 0, 0, 0, 0, 0]"] ;
605 -> 606 ;
607 [label="X[54] <= 23.5\ngini = 0.4744\nsamples = 570\nvalue = [3, 9, 6, 6, 27, 20, 15, 5, 2, 405, 72]"] ;
605 -> 607 ;
608 [label="X[53] <= 22.5\ngini = 0.4856\nsamples = 49\nvalue = [0, 0, 0, 1, 2, 8, 1, 0, 0, 34, 3]"] ;
607 -> 608 ;
609 [label="gini = 0.4272\nsamples = 46\nvalue = [0, 0, 0, 1, 1, 7, 1, 0, 0, 34, 2]"] ;
608 -> 609 ;
610 [label="gini = 0.6667\nsamples = 3\nvalue = [0, 0, 0, 0, 1, 1, 0, 0, 0, 0, 1]"] ;
608 -> 610 ;
611 [label="X[53] <= 15.5\ngini = 0.4712\nsamples = 521\nvalue = [3, 9, 6, 5, 25, 12, 14, 5, 2, 371, 69]"] ;
607 -> 611 ;
612 [label="gini = 0.5083\nsamples = 305\nvalue = [2, 4, 5, 1, 18, 7, 10, 4, 2, 208, 44]"] ;
611 -> 612 ;
613 [label="gini = 0.4143\nsamples = 216\nvalue = [1, 5, 1, 4, 7, 5, 4, 1, 0, 163, 25]"] ;
611 -> 613 ;
614 [label="X[49] <= 1.5\ngini = 0.6018\nsamples = 79\nvalue = [1, 1, 2, 0, 5, 7, 0, 0, 0, 46, 17]"] ;
604 -> 614 ;
615 [label="X[17] <= 0.5\ngini = 0.5562\nsamples = 13\nvalue = [0, 0, 0, 0, 1, 0, 0, 0, 0, 5, 7]"] ;
614 -> 615 ;
616 [label="X[0] <= 0.5\ngini = 0.3704\nsamples = 9\nvalue = [0, 0, 0, 0, 1, 0, 0, 0, 0, 1, 7]"] ;
615 -> 616 ;
617 [label="gini = 0.2188\nsamples = 8\nvalue = [0, 0, 0, 0, 1, 0, 0, 0, 0, 0, 7]"] ;
616 -> 617 ;
618 [label="gini = 0.0\nsamples = 1\nvalue = [0, 0, 0, 0, 0, 0, 0, 0, 0, 1, 0]"] ;
616 -> 618 ;
619 [label="gini = 0.0\nsamples = 4\nvalue = [0, 0, 0, 0, 0, 0, 0, 0, 0, 4, 0]"] ;
615 -> 619 ;
620 [label="X[54] <= 78.0\ngini = 0.5748\nsamples = 66\nvalue = [1, 1, 2, 0, 4, 7, 0, 0, 0, 41, 10]"] ;
614 -> 620 ;
621 [label="X[54] <= 63.5\ngini = 0.5647\nsamples = 65\nvalue = [1, 1, 2, 0, 4, 6, 0, 0, 0, 41, 10]"] ;
620 -> 621 ;
622 [label="gini = 0.6574\nsamples = 34\nvalue = [1, 1, 1, 0, 2, 4, 0, 0, 0, 18, 7]"] ;
621 -> 622 ;
623 [label="gini = 0.4308\nsamples = 31\nvalue = [0, 0, 1, 0, 2, 2, 0, 0, 0, 23, 3]"] ;
621 -> 623 ;
624 [label="gini = 0.0\nsamples = 1\nvalue = [0, 0, 0, 0, 0, 1, 0, 0, 0, 0, 0]"] ;
620 -> 624 ;
625 [label="X[17] <= 0.5\ngini = 0.5996\nsamples = 122\nvalue = [2, 2, 2, 3, 9, 0, 7, 0, 0, 72, 25]"] ;
583 -> 625 ;
626 [label="X[0] <= 0.5\ngini = 0.6439\nsamples = 58\nvalue = [2, 2, 0, 0, 4, 0, 3, 0, 0, 29, 18]"] ;
625 -> 626 ;
627 [label="X[54] <= 21.0\ngini = 0.6421\nsamples = 51\nvalue = [2, 2, 0, 0, 4, 0, 3, 0, 0, 27, 13]"] ;
626 -> 627 ;
628 [label="gini = 0.0\nsamples = 1\nvalue = [1, 0, 0, 0, 0, 0, 0, 0, 0, 0, 0]"] ;
627 -> 628 ;
629 [label="X[16] <= 0.5\ngini = 0.6288\nsamples = 50\nvalue = [1, 2, 0, 0, 4, 0, 3, 0, 0, 27, 13]"] ;
627 -> 629 ;
630 [label="X[46] <= 0.5\ngini = 0.6156\nsamples = 49\nvalue = [1, 2, 0, 0, 4, 0, 2, 0, 0, 27, 13]"] ;
629 -> 630 ;
631 [label="gini = 0.0\nsamples = 4\nvalue = [0, 0, 0, 0, 0, 0, 0, 0, 0, 4, 0]"] ;
630 -> 631 ;
632 [label="gini = 0.643\nsamples = 45\nvalue = [1, 2, 0, 0, 4, 0, 2, 0, 0, 23, 13]"] ;
630 -> 632 ;
633 [label="gini = 0.0\nsamples = 1\nvalue = [0, 0, 0, 0, 0, 0, 1, 0, 0, 0, 0]"] ;
629 -> 633 ;
634 [label="X[50] <= 5.5\ngini = 0.4082\nsamples = 7\nvalue = [0, 0, 0, 0, 0, 0, 0, 0, 0, 2, 5]"] ;
626 -> 634 ;
635 [label="gini = 0.0\nsamples = 2\nvalue = [0, 0, 0, 0, 0, 0, 0, 0, 0, 2, 0]"] ;
634 -> 635 ;
636 [label="gini = 0.0\nsamples = 5\nvalue = [0, 0, 0, 0, 0, 0, 0, 0, 0, 0, 5]"] ;
634 -> 636 ;
637 [label="X[40] <= 0.5\ngini = 0.5234\nsamples = 64\nvalue = [0, 0, 2, 3, 5, 0, 4, 0, 0, 43, 7]"] ;
625 -> 637 ;
638 [label="X[54] <= 21.5\ngini = 0.5089\nsamples = 63\nvalue = [0, 0, 1, 3, 5, 0, 4, 0, 0, 43, 7]"] ;
637 -> 638 ;
639 [label="X[13] <= 0.5\ngini = 0.6667\nsamples = 3\nvalue = [0, 0, 1, 1, 0, 0, 0, 0, 0, 1, 0]"] ;
638 -> 639 ;
640 [label="X[54] <= 20.5\ngini = 0.5\nsamples = 2\nvalue = [0, 0, 1, 1, 0, 0, 0, 0, 0, 0, 0]"] ;
639 -> 640 ;
641 [label="gini = 0.0\nsamples = 1\nvalue = [0, 0, 0, 1, 0, 0, 0, 0, 0, 0, 0]"] ;
640 -> 641 ;
642 [label="gini = 0.0\nsamples = 1\nvalue = [0, 0, 1, 0, 0, 0, 0, 0, 0, 0, 0]"] ;
640 -> 642 ;
643 [label="gini = 0.0\nsamples = 1\nvalue = [0, 0, 0, 0, 0, 0, 0, 0, 0, 1, 0]"] ;
639 -> 643 ;
644 [label="X[25] <= 1.5\ngini = 0.4839\nsamples = 60\nvalue = [0, 0, 0, 2, 5, 0, 4, 0, 0, 42, 7]"] ;
638 -> 644 ;
645 [label="X[6] <= 0.5\ngini = 0.6199\nsamples = 28\nvalue = [0, 0, 0, 1, 4, 0, 3, 0, 0, 16, 4]"] ;
644 -> 645 ;
646 [label="gini = 0.6919\nsamples = 23\nvalue = [0, 0, 0, 1, 4, 0, 3, 0, 0, 11, 4]"] ;
645 -> 646 ;
647 [label="gini = 0.0\nsamples = 5\nvalue = [0, 0, 0, 0, 0, 0, 0, 0, 0, 5, 0]"] ;
645 -> 647 ;
648 [label="X[53] <= 22.5\ngini = 0.3281\nsamples = 32\nvalue = [0, 0, 0, 1, 1, 0, 1, 0, 0, 26, 3]"] ;
644 -> 648 ;
649 [label="gini = 0.2606\nsamples = 27\nvalue = [0, 0, 0, 1, 0, 0, 0, 0, 0, 23, 3]"] ;
648 -> 649 ;
650 [label="gini = 0.56\nsamples = 5\nvalue = [0, 0, 0, 0, 1, 0, 1, 0, 0, 3, 0]"] ;
648 -> 650 ;
651 [label="gini = 0.0\nsamples = 1\nvalue = [0, 0, 1, 0, 0, 0, 0, 0, 0, 0, 0]"] ;
637 -> 651 ;
652 [label="X[54] <= 67.5\ngini = 0.3044\nsamples = 1865\nvalue = [4, 33, 19, 19, 64, 23, 32, 7, 3, 1549, 112]"] ;
0 -> 652 [labeldistance=2.5, labelangle=-45, headlabel="False"] ;
653 [label="X[42] <= 0.5\ngini = 0.2983\nsamples = 1841\nvalue = [3, 31, 16, 19, 63, 23, 31, 7, 3, 1536, 109]"] ;
652 -> 653 ;
654 [label="X[51] <= 0.5\ngini = 0.3198\nsamples = 1057\nvalue = [2, 14, 5, 12, 35, 12, 18, 2, 2, 866, 89]"] ;
653 -> 654 ;
655 [label="X[17] <= 0.5\ngini = 0.457\nsamples = 137\nvalue = [0, 3, 0, 1, 4, 5, 7, 0, 1, 99, 17]"] ;
654 -> 655 ;
656 [label="X[43] <= 0.5\ngini = 0.4932\nsamples = 62\nvalue = [0, 1, 0, 0, 2, 3, 1, 0, 0, 42, 13]"] ;
655 -> 656 ;
657 [label="X[50] <= 2.0\ngini = 0.24\nsamples = 15\nvalue = [0, 0, 0, 0, 0, 1, 0, 0, 0, 13, 1]"] ;
656 -> 657 ;
658 [label="X[8] <= 0.5\ngini = 0.5\nsamples = 2\nvalue = [0, 0, 0, 0, 0, 1, 0, 0, 0, 1, 0]"] ;
657 -> 658 ;
659 [label="gini = 0.0\nsamples = 1\nvalue = [0, 0, 0, 0, 0, 1, 0, 0, 0, 0, 0]"] ;
658 -> 659 ;
660 [label="gini = 0.0\nsamples = 1\nvalue = [0, 0, 0, 0, 0, 0, 0, 0, 0, 1, 0]"] ;
658 -> 660 ;
661 [label="X[41] <= 0.5\ngini = 0.142\nsamples = 13\nvalue = [0, 0, 0, 0, 0, 0, 0, 0, 0, 12, 1]"] ;
657 -> 661 ;
662 [label="gini = 0.0\nsamples = 9\nvalue = [0, 0, 0, 0, 0, 0, 0, 0, 0, 9, 0]"] ;
661 -> 662 ;
663 [label="X[25] <= 2.5\ngini = 0.375\nsamples = 4\nvalue = [0, 0, 0, 0, 0, 0, 0, 0, 0, 3, 1]"] ;
661 -> 663 ;
664 [label="gini = 0.0\nsamples = 2\nvalue = [0, 0, 0, 0, 0, 0, 0, 0, 0, 2, 0]"] ;
663 -> 664 ;
665 [label="X[49] <= 10.0\ngini = 0.5\nsamples = 2\nvalue = [0, 0, 0, 0, 0, 0, 0, 0, 0, 1, 1]"] ;
663 -> 665 ;
666 [label="gini = 0.0\nsamples = 1\nvalue = [0, 0, 0, 0, 0, 0, 0, 0, 0, 0, 1]"] ;
665 -> 666 ;
667 [label="gini = 0.0\nsamples = 1\nvalue = [0, 0, 0, 0, 0, 0, 0, 0, 0, 1, 0]"] ;
665 -> 667 ;
668 [label="X[47] <= 2012.5\ngini = 0.5496\nsamples = 47\nvalue = [0, 1, 0, 0, 2, 2, 1, 0, 0, 29, 12]"] ;
656 -> 668 ;
669 [label="X[54] <= 60.5\ngini = 0.4063\nsamples = 24\nvalue = [0, 0, 0, 0, 1, 0, 1, 0, 0, 18, 4]"] ;
668 -> 669 ;
670 [label="X[2] <= 0.5\ngini = 0.3554\nsamples = 23\nvalue = [0, 0, 0, 0, 1, 0, 0, 0, 0, 18, 4]"] ;
669 -> 670 ;
671 [label="X[54] <= 29.5\ngini = 0.5\nsamples = 14\nvalue = [0, 0, 0, 0, 1, 0, 0, 0, 0, 9, 4]"] ;
670 -> 671 ;
672 [label="gini = 0.0\nsamples = 1\nvalue = [0, 0, 0, 0, 1, 0, 0, 0, 0, 0, 0]"] ;
671 -> 672 ;
673 [label="gini = 0.426\nsamples = 13\nvalue = [0, 0, 0, 0, 0, 0, 0, 0, 0, 9, 4]"] ;
671 -> 673 ;
674 [label="gini = 0.0\nsamples = 9\nvalue = [0, 0, 0, 0, 0, 0, 0, 0, 0, 9, 0]"] ;
670 -> 674 ;
675 [label="gini = 0.0\nsamples = 1\nvalue = [0, 0, 0, 0, 0, 0, 1, 0, 0, 0, 0]"] ;
669 -> 675 ;
676 [label="X[53] <= 5.0\ngini = 0.6389\nsamples = 23\nvalue = [0, 1, 0, 0, 1, 2, 0, 0, 0, 11, 8]"] ;
668 -> 676 ;
677 [label="X[50] <= 4.5\ngini = 0.375\nsamples = 8\nvalue = [0, 0, 0, 0, 0, 2, 0, 0, 0, 6, 0]"] ;
676 -> 677 ;
678 [label="gini = 0.0\nsamples = 5\nvalue = [0, 0, 0, 0, 0, 0, 0, 0, 0, 5, 0]"] ;
677 -> 678 ;
679 [label="X[53] <= 1.0\ngini = 0.4444\nsamples = 3\nvalue = [0, 0, 0, 0, 0, 2, 0, 0, 0, 1, 0]"] ;
677 -> 679 ;
680 [label="gini = 0.0\nsamples = 1\nvalue = [0, 0, 0, 0, 0, 0, 0, 0, 0, 1, 0]"] ;
679 -> 680 ;
681 [label="gini = 0.0\nsamples = 2\nvalue = [0, 0, 0, 0, 0, 2, 0, 0, 0, 0, 0]"] ;
679 -> 681 ;
682 [label="X[40] <= 0.5\ngini = 0.5956\nsamples = 15\nvalue = [0, 1, 0, 0, 1, 0, 0, 0, 0, 5, 8]"] ;
676 -> 682 ;
683 [label="X[2] <= 0.5\ngini = 0.5185\nsamples = 9\nvalue = [0, 1, 0, 0, 1, 0, 0, 0, 0, 1, 6]"] ;
682 -> 683 ;
684 [label="gini = 0.0\nsamples = 5\nvalue = [0, 0, 0, 0, 0, 0, 0, 0, 0, 0, 5]"] ;
683 -> 684 ;
685 [label="gini = 0.75\nsamples = 4\nvalue = [0, 1, 0, 0, 1, 0, 0, 0, 0, 1, 1]"] ;
683 -> 685 ;
686 [label="X[25] <= 1.5\ngini = 0.4444\nsamples = 6\nvalue = [0, 0, 0, 0, 0, 0, 0, 0, 0, 4, 2]"] ;
682 -> 686 ;
687 [label="gini = 0.0\nsamples = 3\nvalue = [0, 0, 0, 0, 0, 0, 0, 0, 0, 3, 0]"] ;
686 -> 687 ;
688 [label="gini = 0.4444\nsamples = 3\nvalue = [0, 0, 0, 0, 0, 0, 0, 0, 0, 1, 2]"] ;
686 -> 688 ;
689 [label="X[47] <= 2013.5\ngini = 0.4107\nsamples = 75\nvalue = [0, 2, 0, 1, 2, 2, 6, 0, 1, 57, 4]"] ;
655 -> 689 ;
690 [label="X[50] <= 4.5\ngini = 0.3673\nsamples = 66\nvalue = [0, 2, 0, 1, 1, 1, 6, 0, 0, 52, 3]"] ;
689 -> 690 ;
691 [label="X[54] <= 52.0\ngini = 0.0907\nsamples = 21\nvalue = [0, 0, 0, 0, 0, 1, 0, 0, 0, 20, 0]"] ;
690 -> 691 ;
692 [label="gini = 0.0\nsamples = 20\nvalue = [0, 0, 0, 0, 0, 0, 0, 0, 0, 20, 0]"] ;
691 -> 692 ;
693 [label="gini = 0.0\nsamples = 1\nvalue = [0, 0, 0, 0, 0, 1, 0, 0, 0, 0, 0]"] ;
691 -> 693 ;
694 [label="X[45] <= 0.5\ngini = 0.4691\nsamples = 45\nvalue = [0, 2, 0, 1, 1, 0, 6, 0, 0, 32, 3]"] ;
690 -> 694 ;
695 [label="X[49] <= 5.5\ngini = 0.6016\nsamples = 25\nvalue = [0, 2, 0, 1, 1, 0, 3, 0, 0, 15, 3]"] ;
694 -> 695 ;
696 [label="X[54] <= 27.5\ngini = 0.5\nsamples = 2\nvalue = [0, 1, 0, 1, 0, 0, 0, 0, 0, 0, 0]"] ;
695 -> 696 ;
697 [label="gini = 0.0\nsamples = 1\nvalue = [0, 1, 0, 0, 0, 0, 0, 0, 0, 0, 0]"] ;
696 -> 697 ;
698 [label="gini = 0.0\nsamples = 1\nvalue = [0, 0, 0, 1, 0, 0, 0, 0, 0, 0, 0]"] ;
696 -> 698 ;
699 [label="X[48] <= 2012.5\ngini = 0.5369\nsamples = 23\nvalue = [0, 1, 0, 0, 1, 0, 3, 0, 0, 15, 3]"] ;
695 -> 699 ;
700 [label="gini = 0.6942\nsamples = 11\nvalue = [0, 1, 0, 0, 1, 0, 1, 0, 0, 5, 3]"] ;
699 -> 700 ;
701 [label="gini = 0.2778\nsamples = 12\nvalue = [0, 0, 0, 0, 0, 0, 2, 0, 0, 10, 0]"] ;
699 -> 701 ;
702 [label="X[53] <= 0.5\ngini = 0.255\nsamples = 20\nvalue = [0, 0, 0, 0, 0, 0, 3, 0, 0, 17, 0]"] ;
694 -> 702 ;
703 [label="X[47] <= 2012.5\ngini = 0.5\nsamples = 2\nvalue = [0, 0, 0, 0, 0, 0, 1, 0, 0, 1, 0]"] ;
702 -> 703 ;
704 [label="gini = 0.0\nsamples = 1\nvalue = [0, 0, 0, 0, 0, 0, 0, 0, 0, 1, 0]"] ;
703 -> 704 ;
705 [label="gini = 0.0\nsamples = 1\nvalue = [0, 0, 0, 0, 0, 0, 1, 0, 0, 0, 0]"] ;
703 -> 705 ;
706 [label="X[0] <= 0.5\ngini = 0.1975\nsamples = 18\nvalue = [0, 0, 0, 0, 0, 0, 2, 0, 0, 16, 0]"] ;
702 -> 706 ;
707 [label="gini = 0.1172\nsamples = 16\nvalue = [0, 0, 0, 0, 0, 0, 1, 0, 0, 15, 0]"] ;
706 -> 707 ;
708 [label="gini = 0.5\nsamples = 2\nvalue = [0, 0, 0, 0, 0, 0, 1, 0, 0, 1, 0]"] ;
706 -> 708 ;
709 [label="X[54] <= 27.0\ngini = 0.642\nsamples = 9\nvalue = [0, 0, 0, 0, 1, 1, 0, 0, 1, 5, 1]"] ;
689 -> 709 ;
710 [label="X[50] <= 2.0\ngini = 0.5\nsamples = 2\nvalue = [0, 0, 0, 0, 1, 0, 0, 0, 1, 0, 0]"] ;
709 -> 710 ;
711 [label="gini = 0.0\nsamples = 1\nvalue = [0, 0, 0, 0, 1, 0, 0, 0, 0, 0, 0]"] ;
710 -> 711 ;
712 [label="gini = 0.0\nsamples = 1\nvalue = [0, 0, 0, 0, 0, 0, 0, 0, 1, 0, 0]"] ;
710 -> 712 ;
713 [label="X[6] <= 0.5\ngini = 0.449\nsamples = 7\nvalue = [0, 0, 0, 0, 0, 1, 0, 0, 0, 5, 1]"] ;
709 -> 713 ;
714 [label="X[18] <= 0.5\ngini = 0.2778\nsamples = 6\nvalue = [0, 0, 0, 0, 0, 1, 0, 0, 0, 5, 0]"] ;
713 -> 714 ;
715 [label="gini = 0.0\nsamples = 5\nvalue = [0, 0, 0, 0, 0, 0, 0, 0, 0, 5, 0]"] ;
714 -> 715 ;
716 [label="gini = 0.0\nsamples = 1\nvalue = [0, 0, 0, 0, 0, 1, 0, 0, 0, 0, 0]"] ;
714 -> 716 ;
717 [label="gini = 0.0\nsamples = 1\nvalue = [0, 0, 0, 0, 0, 0, 0, 0, 0, 0, 1]"] ;
713 -> 717 ;
718 [label="X[51] <= 3.5\ngini = 0.2972\nsamples = 920\nvalue = [2, 11, 5, 11, 31, 7, 11, 2, 1, 767, 72]"] ;
654 -> 718 ;
719 [label="X[23] <= 0.5\ngini = 0.2456\nsamples = 522\nvalue = [0, 6, 2, 4, 15, 4, 8, 1, 0, 452, 30]"] ;
718 -> 719 ;
720 [label="X[51] <= 2.5\ngini = 0.2304\nsamples = 488\nvalue = [0, 6, 1, 4, 14, 2, 8, 1, 0, 427, 25]"] ;
719 -> 720 ;
721 [label="X[53] <= 19.5\ngini = 0.2743\nsamples = 330\nvalue = [0, 5, 1, 3, 10, 2, 7, 1, 0, 280, 21]"] ;
720 -> 721 ;
722 [label="X[7] <= 0.5\ngini = 0.3113\nsamples = 240\nvalue = [0, 4, 1, 3, 10, 2, 3, 1, 0, 198, 18]"] ;
721 -> 722 ;
723 [label="X[24] <= 0.5\ngini = 0.3073\nsamples = 238\nvalue = [0, 4, 1, 3, 10, 2, 3, 1, 0, 197, 17]"] ;
722 -> 723 ;
724 [label="gini = 0.294\nsamples = 226\nvalue = [0, 4, 1, 3, 9, 2, 2, 1, 0, 189, 15]"] ;
723 -> 724 ;
725 [label="gini = 0.5139\nsamples = 12\nvalue = [0, 0, 0, 0, 1, 0, 1, 0, 0, 8, 2]"] ;
723 -> 725 ;
726 [label="X[47] <= 2013.5\ngini = 0.5\nsamples = 2\nvalue = [0, 0, 0, 0, 0, 0, 0, 0, 0, 1, 1]"] ;
722 -> 726 ;
727 [label="gini = 0.0\nsamples = 1\nvalue = [0, 0, 0, 0, 0, 0, 0, 0, 0, 0, 1]"] ;
726 -> 727 ;
728 [label="gini = 0.0\nsamples = 1\nvalue = [0, 0, 0, 0, 0, 0, 0, 0, 0, 1, 0]"] ;
726 -> 728 ;
729 [label="X[41] <= 0.5\ngini = 0.1667\nsamples = 90\nvalue = [0, 1, 0, 0, 0, 0, 4, 0, 0, 82, 3]"] ;
721 -> 729 ;
730 [label="X[54] <= 32.5\ngini = 0.1358\nsamples = 84\nvalue = [0, 1, 0, 0, 0, 0, 3, 0, 0, 78, 2]"] ;
729 -> 730 ;
731 [label="gini = 0.2241\nsamples = 49\nvalue = [0, 1, 0, 0, 0, 0, 3, 0, 0, 43, 2]"] ;
730 -> 731 ;
732 [label="gini = 0.0\nsamples = 35\nvalue = [0, 0, 0, 0, 0, 0, 0, 0, 0, 35, 0]"] ;
730 -> 732 ;
733 [label="X[48] <= 2012.5\ngini = 0.5\nsamples = 6\nvalue = [0, 0, 0, 0, 0, 0, 1, 0, 0, 4, 1]"] ;
729 -> 733 ;
734 [label="gini = 0.0\nsamples = 1\nvalue = [0, 0, 0, 0, 0, 0, 0, 0, 0, 0, 1]"] ;
733 -> 734 ;
735 [label="gini = 0.32\nsamples = 5\nvalue = [0, 0, 0, 0, 0, 0, 1, 0, 0, 4, 0]"] ;
733 -> 735 ;
736 [label="X[41] <= 0.5\ngini = 0.133\nsamples = 158\nvalue = [0, 1, 0, 1, 4, 0, 1, 0, 0, 147, 4]"] ;
720 -> 736 ;
737 [label="X[48] <= 2011.5\ngini = 0.1063\nsamples = 145\nvalue = [0, 1, 0, 1, 1, 0, 1, 0, 0, 137, 4]"] ;
736 -> 737 ;
738 [label="X[40] <= 0.5\ngini = 0.3356\nsamples = 21\nvalue = [0, 1, 0, 1, 1, 0, 0, 0, 0, 17, 1]"] ;
737 -> 738 ;
739 [label="gini = 0.27\nsamples = 20\nvalue = [0, 1, 0, 0, 1, 0, 0, 0, 0, 17, 1]"] ;
738 -> 739 ;
740 [label="gini = 0.0\nsamples = 1\nvalue = [0, 0, 0, 1, 0, 0, 0, 0, 0, 0, 0]"] ;
738 -> 740 ;
741 [label="X[2] <= 0.5\ngini = 0.0628\nsamples = 124\nvalue = [0, 0, 0, 0, 0, 0, 1, 0, 0, 120, 3]"] ;
737 -> 741 ;
742 [label="gini = 0.0213\nsamples = 93\nvalue = [0, 0, 0, 0, 0, 0, 0, 0, 0, 92, 1]"] ;
741 -> 742 ;
743 [label="gini = 0.179\nsamples = 31\nvalue = [0, 0, 0, 0, 0, 0, 1, 0, 0, 28, 2]"] ;
741 -> 743 ;
744 [label="X[17] <= 0.5\ngini = 0.355\nsamples = 13\nvalue = [0, 0, 0, 0, 3, 0, 0, 0, 0, 10, 0]"] ;
736 -> 744 ;
745 [label="gini = 0.0\nsamples = 5\nvalue = [0, 0, 0, 0, 0, 0, 0, 0, 0, 5, 0]"] ;
744 -> 745 ;
746 [label="X[49] <= 8.5\ngini = 0.4688\nsamples = 8\nvalue = [0, 0, 0, 0, 3, 0, 0, 0, 0, 5, 0]"] ;
744 -> 746 ;
747 [label="gini = 0.48\nsamples = 5\nvalue = [0, 0, 0, 0, 3, 0, 0, 0, 0, 2, 0]"] ;
746 -> 747 ;
748 [label="gini = 0.0\nsamples = 3\nvalue = [0, 0, 0, 0, 0, 0, 0, 0, 0, 3, 0]"] ;
746 -> 748 ;
749 [label="X[8] <= 0.5\ngini = 0.4325\nsamples = 34\nvalue = [0, 0, 1, 0, 1, 2, 0, 0, 0, 25, 5]"] ;
719 -> 749 ;
750 [label="X[54] <= 33.5\ngini = 0.4004\nsamples = 33\nvalue = [0, 0, 1, 0, 1, 1, 0, 0, 0, 25, 5]"] ;
749 -> 750 ;
751 [label="gini = 0.0\nsamples = 11\nvalue = [0, 0, 0, 0, 0, 0, 0, 0, 0, 11, 0]"] ;
750 -> 751 ;
752 [label="X[16] <= 0.5\ngini = 0.5372\nsamples = 22\nvalue = [0, 0, 1, 0, 1, 1, 0, 0, 0, 14, 5]"] ;
750 -> 752 ;
753 [label="X[53] <= 21.5\ngini = 0.5125\nsamples = 21\nvalue = [0, 0, 1, 0, 1, 1, 0, 0, 0, 14, 4]"] ;
752 -> 753 ;
754 [label="gini = 0.48\nsamples = 20\nvalue = [0, 0, 1, 0, 1, 1, 0, 0, 0, 14, 3]"] ;
753 -> 754 ;
755 [label="gini = 0.0\nsamples = 1\nvalue = [0, 0, 0, 0, 0, 0, 0, 0, 0, 0, 1]"] ;
753 -> 755 ;
756 [label="gini = 0.0\nsamples = 1\nvalue = [0, 0, 0, 0, 0, 0, 0, 0, 0, 0, 1]"] ;
752 -> 756 ;
757 [label="gini = 0.0\nsamples = 1\nvalue = [0, 0, 0, 0, 0, 1, 0, 0, 0, 0, 0]"] ;
749 -> 757 ;
758 [label="X[54] <= 20.5\ngini = 0.3602\nsamples = 398\nvalue = [2, 5, 3, 7, 16, 3, 3, 1, 1, 315, 42]"] ;
718 -> 758 ;
759 [label="X[49] <= 3.5\ngini = 0.6111\nsamples = 6\nvalue = [0, 0, 0, 0, 1, 0, 0, 0, 0, 2, 3]"] ;
758 -> 759 ;
760 [label="gini = 0.0\nsamples = 2\nvalue = [0, 0, 0, 0, 0, 0, 0, 0, 0, 2, 0]"] ;
759 -> 760 ;
761 [label="X[49] <= 8.5\ngini = 0.375\nsamples = 4\nvalue = [0, 0, 0, 0, 1, 0, 0, 0, 0, 0, 3]"] ;
759 -> 761 ;
762 [label="gini = 0.0\nsamples = 2\nvalue = [0, 0, 0, 0, 0, 0, 0, 0, 0, 0, 2]"] ;
761 -> 762 ;
763 [label="X[52] <= 5.5\ngini = 0.5\nsamples = 2\nvalue = [0, 0, 0, 0, 1, 0, 0, 0, 0, 0, 1]"] ;
761 -> 763 ;
764 [label="gini = 0.0\nsamples = 1\nvalue = [0, 0, 0, 0, 1, 0, 0, 0, 0, 0, 0]"] ;
763 -> 764 ;
765 [label="gini = 0.0\nsamples = 1\nvalue = [0, 0, 0, 0, 0, 0, 0, 0, 0, 0, 1]"] ;
763 -> 765 ;
766 [label="X[54] <= 66.5\ngini = 0.3504\nsamples = 392\nvalue = [2, 5, 3, 7, 15, 3, 3, 1, 1, 313, 39]"] ;
758 -> 766 ;
767 [label="X[37] <= 0.5\ngini = 0.3471\nsamples = 391\nvalue = [2, 5, 2, 7, 15, 3, 3, 1, 1, 313, 39]"] ;
766 -> 767 ;
768 [label="X[23] <= 0.5\ngini = 0.3442\nsamples = 390\nvalue = [2, 5, 2, 7, 15, 3, 3, 1, 1, 313, 38]"] ;
767 -> 768 ;
769 [label="X[54] <= 24.5\ngini = 0.3256\nsamples = 366\nvalue = [2, 3, 1, 6, 13, 2, 3, 1, 1, 298, 36]"] ;
768 -> 769 ;
770 [label="gini = 0.4533\nsamples = 30\nvalue = [0, 0, 0, 1, 1, 0, 0, 0, 0, 21, 7]"] ;
769 -> 770 ;
771 [label="gini = 0.3112\nsamples = 336\nvalue = [2, 3, 1, 5, 12, 2, 3, 1, 1, 277, 29]"] ;
769 -> 771 ;
772 [label="X[49] <= 5.5\ngini = 0.5833\nsamples = 24\nvalue = [0, 2, 1, 1, 2, 1, 0, 0, 0, 15, 2]"] ;
768 -> 772 ;
773 [label="gini = 0.8099\nsamples = 11\nvalue = [0, 2, 0, 1, 2, 1, 0, 0, 0, 3, 2]"] ;
772 -> 773 ;
774 [label="gini = 0.142\nsamples = 13\nvalue = [0, 0, 1, 0, 0, 0, 0, 0, 0, 12, 0]"] ;
772 -> 774 ;
775 [label="gini = 0.0\nsamples = 1\nvalue = [0, 0, 0, 0, 0, 0, 0, 0, 0, 0, 1]"] ;
767 -> 775 ;
776 [label="gini = 0.0\nsamples = 1\nvalue = [0, 0, 1, 0, 0, 0, 0, 0, 0, 0, 0]"] ;
766 -> 776 ;
777 [label="X[2] <= 0.5\ngini = 0.2665\nsamples = 784\nvalue = [1, 17, 11, 7, 28, 11, 13, 5, 1, 670, 20]"] ;
653 -> 777 ;
778 [label="X[22] <= 3.5\ngini = 0.1989\nsamples = 387\nvalue = [1, 4, 7, 2, 4, 6, 5, 1, 0, 346, 11]"] ;
777 -> 778 ;
779 [label="X[52] <= 5.5\ngini = 0.2237\nsamples = 341\nvalue = [1, 4, 7, 2, 4, 6, 5, 1, 0, 300, 11]"] ;
778 -> 779 ;
780 [label="X[54] <= 63.5\ngini = 0.2446\nsamples = 302\nvalue = [1, 4, 6, 2, 4, 6, 5, 1, 0, 262, 11]"] ;
779 -> 780 ;
781 [label="X[54] <= 24.5\ngini = 0.237\nsamples = 297\nvalue = [1, 4, 5, 2, 4, 6, 5, 1, 0, 259, 10]"] ;
780 -> 781 ;
782 [label="X[52] <= 3.5\ngini = 0.5185\nsamples = 9\nvalue = [0, 0, 0, 0, 0, 1, 1, 0, 0, 6, 1]"] ;
781 -> 782 ;
783 [label="gini = 0.0\nsamples = 6\nvalue = [0, 0, 0, 0, 0, 0, 0, 0, 0, 6, 0]"] ;
782 -> 783 ;
784 [label="X[50] <= 3.5\ngini = 0.6667\nsamples = 3\nvalue = [0, 0, 0, 0, 0, 1, 1, 0, 0, 0, 1]"] ;
782 -> 784 ;
785 [label="gini = 0.0\nsamples = 1\nvalue = [0, 0, 0, 0, 0, 0, 1, 0, 0, 0, 0]"] ;
784 -> 785 ;
786 [label="gini = 0.5\nsamples = 2\nvalue = [0, 0, 0, 0, 0, 1, 0, 0, 0, 0, 1]"] ;
784 -> 786 ;
787 [label="X[53] <= 17.5\ngini = 0.2261\nsamples = 288\nvalue = [1, 4, 5, 2, 4, 5, 4, 1, 0, 253, 9]"] ;
781 -> 787 ;
788 [label="X[54] <= 30.5\ngini = 0.2803\nsamples = 182\nvalue = [1, 4, 4, 1, 3, 4, 4, 0, 0, 154, 7]"] ;
787 -> 788 ;
789 [label="gini = 0.0918\nsamples = 42\nvalue = [0, 0, 1, 0, 0, 0, 0, 0, 0, 40, 1]"] ;
788 -> 789 ;
790 [label="gini = 0.3316\nsamples = 140\nvalue = [1, 4, 3, 1, 3, 4, 4, 0, 0, 114, 6]"] ;
788 -> 790 ;
791 [label="X[50] <= 6.5\ngini = 0.1269\nsamples = 106\nvalue = [0, 0, 1, 1, 1, 1, 0, 1, 0, 99, 2]"] ;
787 -> 791 ;
792 [label="gini = 0.0303\nsamples = 65\nvalue = [0, 0, 0, 1, 0, 0, 0, 0, 0, 64, 0]"] ;
791 -> 792 ;
793 [label="gini = 0.2665\nsamples = 41\nvalue = [0, 0, 1, 0, 1, 1, 0, 1, 0, 35, 2]"] ;
791 -> 793 ;
794 [label="X[14] <= 0.5\ngini = 0.56\nsamples = 5\nvalue = [0, 0, 1, 0, 0, 0, 0, 0, 0, 3, 1]"] ;
780 -> 794 ;
795 [label="X[18] <= 0.5\ngini = 0.375\nsamples = 4\nvalue = [0, 0, 1, 0, 0, 0, 0, 0, 0, 3, 0]"] ;
794 -> 795 ;
796 [label="gini = 0.0\nsamples = 3\nvalue = [0, 0, 0, 0, 0, 0, 0, 0, 0, 3, 0]"] ;
795 -> 796 ;
797 [label="gini = 0.0\nsamples = 1\nvalue = [0, 0, 1, 0, 0, 0, 0, 0, 0, 0, 0]"] ;
795 -> 797 ;
798 [label="gini = 0.0\nsamples = 1\nvalue = [0, 0, 0, 0, 0, 0, 0, 0, 0, 0, 1]"] ;
794 -> 798 ;
799 [label="X[18] <= 0.5\ngini = 0.05\nsamples = 39\nvalue = [0, 0, 1, 0, 0, 0, 0, 0, 0, 38, 0]"] ;
779 -> 799 ;
800 [label="gini = 0.0\nsamples = 32\nvalue = [0, 0, 0, 0, 0, 0, 0, 0, 0, 32, 0]"] ;
799 -> 800 ;
801 [label="X[50] <= 5.5\ngini = 0.2449\nsamples = 7\nvalue = [0, 0, 1, 0, 0, 0, 0, 0, 0, 6, 0]"] ;
799 -> 801 ;
802 [label="gini = 0.0\nsamples = 4\nvalue = [0, 0, 0, 0, 0, 0, 0, 0, 0, 4, 0]"] ;
801 -> 802 ;
803 [label="X[48] <= 2011.0\ngini = 0.4444\nsamples = 3\nvalue = [0, 0, 1, 0, 0, 0, 0, 0, 0, 2, 0]"] ;
801 -> 803 ;
804 [label="gini = 0.0\nsamples = 2\nvalue = [0, 0, 0, 0, 0, 0, 0, 0, 0, 2, 0]"] ;
803 -> 804 ;
805 [label="gini = 0.0\nsamples = 1\nvalue = [0, 0, 1, 0, 0, 0, 0, 0, 0, 0, 0]"] ;
803 -> 805 ;
806 [label="gini = 0.0\nsamples = 46\nvalue = [0, 0, 0, 0, 0, 0, 0, 0, 0, 46, 0]"] ;
778 -> 806 ;
807 [label="X[17] <= 0.5\ngini = 0.3278\nsamples = 397\nvalue = [0, 13, 4, 5, 24, 5, 8, 4, 1, 324, 9]"] ;
777 -> 807 ;
808 [label="X[52] <= 0.5\ngini = 0.2418\nsamples = 191\nvalue = [0, 6, 1, 3, 6, 1, 3, 3, 1, 166, 1]"] ;
807 -> 808 ;
809 [label="X[54] <= 25.5\ngini = 0.4219\nsamples = 32\nvalue = [0, 3, 0, 1, 2, 1, 0, 1, 0, 24, 0]"] ;
808 -> 809 ;
810 [label="gini = 0.0\nsamples = 1\nvalue = [0, 0, 0, 0, 1, 0, 0, 0, 0, 0, 0]"] ;
809 -> 810 ;
811 [label="X[53] <= 8.0\ngini = 0.3871\nsamples = 31\nvalue = [0, 3, 0, 1, 1, 1, 0, 1, 0, 24, 0]"] ;
809 -> 811 ;
812 [label="X[50] <= 3.0\ngini = 0.5562\nsamples = 13\nvalue = [0, 3, 0, 1, 0, 1, 0, 0, 0, 8, 0]"] ;
811 -> 812 ;
813 [label="X[49] <= 1.5\ngini = 0.5\nsamples = 2\nvalue = [0, 1, 0, 1, 0, 0, 0, 0, 0, 0, 0]"] ;
812 -> 813 ;
814 [label="gini = 0.0\nsamples = 1\nvalue = [0, 1, 0, 0, 0, 0, 0, 0, 0, 0, 0]"] ;
813 -> 814 ;
815 [label="gini = 0.0\nsamples = 1\nvalue = [0, 0, 0, 1, 0, 0, 0, 0, 0, 0, 0]"] ;
813 -> 815 ;
816 [label="X[53] <= 6.5\ngini = 0.4298\nsamples = 11\nvalue = [0, 2, 0, 0, 0, 1, 0, 0, 0, 8, 0]"] ;
812 -> 816 ;
817 [label="gini = 0.2188\nsamples = 8\nvalue = [0, 1, 0, 0, 0, 0, 0, 0, 0, 7, 0]"] ;
816 -> 817 ;
818 [label="gini = 0.6667\nsamples = 3\nvalue = [0, 1, 0, 0, 0, 1, 0, 0, 0, 1, 0]"] ;
816 -> 818 ;
819 [label="X[50] <= 7.5\ngini = 0.2037\nsamples = 18\nvalue = [0, 0, 0, 0, 1, 0, 0, 1, 0, 16, 0]"] ;
811 -> 819 ;
820 [label="X[54] <= 28.5\ngini = 0.1172\nsamples = 16\nvalue = [0, 0, 0, 0, 1, 0, 0, 0, 0, 15, 0]"] ;
819 -> 820 ;
821 [label="gini = 0.5\nsamples = 2\nvalue = [0, 0, 0, 0, 1, 0, 0, 0, 0, 1, 0]"] ;
820 -> 821 ;
822 [label="gini = 0.0\nsamples = 14\nvalue = [0, 0, 0, 0, 0, 0, 0, 0, 0, 14, 0]"] ;
820 -> 822 ;
823 [label="X[49] <= 9.5\ngini = 0.5\nsamples = 2\nvalue = [0, 0, 0, 0, 0, 0, 0, 1, 0, 1, 0]"] ;
819 -> 823 ;
824 [label="gini = 0.0\nsamples = 1\nvalue = [0, 0, 0, 0, 0, 0, 0, 1, 0, 0, 0]"] ;
823 -> 824 ;
825 [label="gini = 0.0\nsamples = 1\nvalue = [0, 0, 0, 0, 0, 0, 0, 0, 0, 1, 0]"] ;
823 -> 825 ;
826 [label="X[15] <= 0.5\ngini = 0.2006\nsamples = 159\nvalue = [0, 3, 1, 2, 4, 0, 3, 2, 1, 142, 1]"] ;
808 -> 826 ;
827 [label="X[54] <= 28.5\ngini = 0.1917\nsamples = 157\nvalue = [0, 3, 1, 1, 4, 0, 3, 2, 1, 141, 1]"] ;
826 -> 827 ;
828 [label="gini = 0.0\nsamples = 25\nvalue = [0, 0, 0, 0, 0, 0, 0, 0, 0, 25, 0]"] ;
827 -> 828 ;
829 [label="X[54] <= 42.5\ngini = 0.2253\nsamples = 132\nvalue = [0, 3, 1, 1, 4, 0, 3, 2, 1, 116, 1]"] ;
827 -> 829 ;
830 [label="X[54] <= 41.5\ngini = 0.2788\nsamples = 98\nvalue = [0, 2, 1, 1, 4, 0, 3, 2, 1, 83, 1]"] ;
829 -> 830 ;
831 [label="gini = 0.264\nsamples = 97\nvalue = [0, 2, 1, 0, 4, 0, 3, 2, 1, 83, 1]"] ;
830 -> 831 ;
832 [label="gini = 0.0\nsamples = 1\nvalue = [0, 0, 0, 1, 0, 0, 0, 0, 0, 0, 0]"] ;
830 -> 832 ;
833 [label="X[50] <= 11.0\ngini = 0.0571\nsamples = 34\nvalue = [0, 1, 0, 0, 0, 0, 0, 0, 0, 33, 0]"] ;
829 -> 833 ;
834 [label="gini = 0.0\nsamples = 31\nvalue = [0, 0, 0, 0, 0, 0, 0, 0, 0, 31, 0]"] ;
833 -> 834 ;
835 [label="gini = 0.4444\nsamples = 3\nvalue = [0, 1, 0, 0, 0, 0, 0, 0, 0, 2, 0]"] ;
833 -> 835 ;
836 [label="X[48] <= 2011.5\ngini = 0.5\nsamples = 2\nvalue = [0, 0, 0, 1, 0, 0, 0, 0, 0, 1, 0]"] ;
826 -> 836 ;
837 [label="gini = 0.0\nsamples = 1\nvalue = [0, 0, 0, 1, 0, 0, 0, 0, 0, 0, 0]"] ;
836 -> 837 ;
838 [label="gini = 0.0\nsamples = 1\nvalue = [0, 0, 0, 0, 0, 0, 0, 0, 0, 1, 0]"] ;
836 -> 838 ;
839 [label="X[50] <= 7.5\ngini = 0.4001\nsamples = 206\nvalue = [0, 7, 3, 2, 18, 4, 5, 1, 0, 158, 8]"] ;
807 -> 839 ;
840 [label="X[54] <= 22.0\ngini = 0.4731\nsamples = 125\nvalue = [0, 6, 2, 2, 15, 3, 3, 0, 0, 89, 5]"] ;
839 -> 840 ;
841 [label="X[54] <= 18.5\ngini = 0.4444\nsamples = 3\nvalue = [0, 2, 0, 0, 0, 0, 0, 0, 0, 1, 0]"] ;
840 -> 841 ;
842 [label="gini = 0.0\nsamples = 1\nvalue = [0, 0, 0, 0, 0, 0, 0, 0, 0, 1, 0]"] ;
841 -> 842 ;
843 [label="gini = 0.0\nsamples = 2\nvalue = [0, 2, 0, 0, 0, 0, 0, 0, 0, 0, 0]"] ;
841 -> 843 ;
844 [label="X[53] <= 19.5\ngini = 0.4601\nsamples = 122\nvalue = [0, 4, 2, 2, 15, 3, 3, 0, 0, 88, 5]"] ;
840 -> 844 ;
845 [label="X[53] <= 16.5\ngini = 0.4021\nsamples = 93\nvalue = [0, 4, 2, 1, 10, 2, 1, 0, 0, 71, 2]"] ;
844 -> 845 ;
846 [label="X[13] <= 0.5\ngini = 0.4541\nsamples = 72\nvalue = [0, 4, 2, 0, 10, 2, 1, 0, 0, 52, 1]"] ;
845 -> 846 ;
847 [label="gini = 0.3644\nsamples = 57\nvalue = [0, 3, 2, 0, 5, 1, 0, 0, 0, 45, 1]"] ;
846 -> 847 ;
848 [label="gini = 0.6578\nsamples = 15\nvalue = [0, 1, 0, 0, 5, 1, 1, 0, 0, 7, 0]"] ;
846 -> 848 ;
849 [label="X[49] <= 5.5\ngini = 0.1769\nsamples = 21\nvalue = [0, 0, 0, 1, 0, 0, 0, 0, 0, 19, 1]"] ;
845 -> 849 ;
850 [label="gini = 0.0\nsamples = 17\nvalue = [0, 0, 0, 0, 0, 0, 0, 0, 0, 17, 0]"] ;
849 -> 850 ;
851 [label="gini = 0.625\nsamples = 4\nvalue = [0, 0, 0, 1, 0, 0, 0, 0, 0, 2, 1]"] ;
849 -> 851 ;
852 [label="X[47] <= 2010.5\ngini = 0.6088\nsamples = 29\nvalue = [0, 0, 0, 1, 5, 1, 2, 0, 0, 17, 3]"] ;
844 -> 852 ;
853 [label="X[52] <= 4.5\ngini = 0.75\nsamples = 8\nvalue = [0, 0, 0, 1, 3, 1, 1, 0, 0, 2, 0]"] ;
852 -> 853 ;
854 [label="gini = 0.56\nsamples = 5\nvalue = [0, 0, 0, 1, 3, 1, 0, 0, 0, 0, 0]"] ;
853 -> 854 ;
855 [label="gini = 0.4444\nsamples = 3\nvalue = [0, 0, 0, 0, 0, 0, 1, 0, 0, 2, 0]"] ;
853 -> 855 ;
856 [label="X[49] <= 5.0\ngini = 0.458\nsamples = 21\nvalue = [0, 0, 0, 0, 2, 0, 1, 0, 0, 15, 3]"] ;
852 -> 856 ;
857 [label="gini = 0.5444\nsamples = 13\nvalue = [0, 0, 0, 0, 2, 0, 0, 0, 0, 8, 3]"] ;
856 -> 857 ;
858 [label="gini = 0.2188\nsamples = 8\nvalue = [0, 0, 0, 0, 0, 0, 1, 0, 0, 7, 0]"] ;
856 -> 858 ;
859 [label="X[54] <= 36.5\ngini = 0.2704\nsamples = 81\nvalue = [0, 1, 1, 0, 3, 1, 2, 1, 0, 69, 3]"] ;
839 -> 859 ;
860 [label="X[51] <= 1.5\ngini = 0.3882\nsamples = 49\nvalue = [0, 1, 0, 0, 3, 1, 2, 1, 0, 38, 3]"] ;
859 -> 860 ;
861 [label="X[53] <= 1.5\ngini = 0.5805\nsamples = 21\nvalue = [0, 1, 0, 0, 3, 0, 1, 1, 0, 13, 2]"] ;
860 -> 861 ;
862 [label="gini = 0.0\nsamples = 1\nvalue = [0, 0, 0, 0, 0, 0, 0, 0, 0, 0, 1]"] ;
861 -> 862 ;
863 [label="X[54] <= 25.5\ngini = 0.545\nsamples = 20\nvalue = [0, 1, 0, 0, 3, 0, 1, 1, 0, 13, 1]"] ;
861 -> 863 ;
864 [label="gini = 0.0\nsamples = 1\nvalue = [0, 0, 0, 0, 1, 0, 0, 0, 0, 0, 0]"] ;
863 -> 864 ;
865 [label="gini = 0.5097\nsamples = 19\nvalue = [0, 1, 0, 0, 2, 0, 1, 1, 0, 13, 1]"] ;
863 -> 865 ;
866 [label="X[54] <= 31.5\ngini = 0.199\nsamples = 28\nvalue = [0, 0, 0, 0, 0, 1, 1, 0, 0, 25, 1]"] ;
860 -> 866 ;
867 [label="gini = 0.0\nsamples = 15\nvalue = [0, 0, 0, 0, 0, 0, 0, 0, 0, 15, 0]"] ;
866 -> 867 ;
868 [label="X[49] <= 8.5\ngini = 0.3905\nsamples = 13\nvalue = [0, 0, 0, 0, 0, 1, 1, 0, 0, 10, 1]"] ;
866 -> 868 ;
869 [label="gini = 0.0\nsamples = 1\nvalue = [0, 0, 0, 0, 0, 1, 0, 0, 0, 0, 0]"] ;
868 -> 869 ;
870 [label="gini = 0.2917\nsamples = 12\nvalue = [0, 0, 0, 0, 0, 0, 1, 0, 0, 10, 1]"] ;
868 -> 870 ;
871 [label="X[6] <= 0.5\ngini = 0.0605\nsamples = 32\nvalue = [0, 0, 1, 0, 0, 0, 0, 0, 0, 31, 0]"] ;
859 -> 871 ;
872 [label="gini = 0.0\nsamples = 25\nvalue = [0, 0, 0, 0, 0, 0, 0, 0, 0, 25, 0]"] ;
871 -> 872 ;
873 [label="X[53] <= 13.5\ngini = 0.2449\nsamples = 7\nvalue = [0, 0, 1, 0, 0, 0, 0, 0, 0, 6, 0]"] ;
871 -> 873 ;
874 [label="gini = 0.0\nsamples = 5\nvalue = [0, 0, 0, 0, 0, 0, 0, 0, 0, 5, 0]"] ;
873 -> 874 ;
875 [label="X[53] <= 21.5\ngini = 0.5\nsamples = 2\nvalue = [0, 0, 1, 0, 0, 0, 0, 0, 0, 1, 0]"] ;
873 -> 875 ;
876 [label="gini = 0.0\nsamples = 1\nvalue = [0, 0, 1, 0, 0, 0, 0, 0, 0, 0, 0]"] ;
875 -> 876 ;
877 [label="gini = 0.0\nsamples = 1\nvalue = [0, 0, 0, 0, 0, 0, 0, 0, 0, 1, 0]"] ;
875 -> 877 ;
878 [label="X[53] <= 16.5\ngini = 0.6632\nsamples = 24\nvalue = [1, 2, 3, 0, 1, 0, 1, 0, 0, 13, 3]"] ;
652 -> 878 ;
879 [label="X[25] <= 2.5\ngini = 0.5067\nsamples = 15\nvalue = [1, 1, 3, 0, 0, 0, 0, 0, 0, 10, 0]"] ;
878 -> 879 ;
880 [label="X[54] <= 71.5\ngini = 0.34\nsamples = 10\nvalue = [1, 1, 0, 0, 0, 0, 0, 0, 0, 8, 0]"] ;
879 -> 880 ;
881 [label="X[48] <= 2010.5\ngini = 0.1975\nsamples = 9\nvalue = [0, 1, 0, 0, 0, 0, 0, 0, 0, 8, 0]"] ;
880 -> 881 ;
882 [label="X[51] <= 4.0\ngini = 0.5\nsamples = 2\nvalue = [0, 1, 0, 0, 0, 0, 0, 0, 0, 1, 0]"] ;
881 -> 882 ;
883 [label="gini = 0.0\nsamples = 1\nvalue = [0, 1, 0, 0, 0, 0, 0, 0, 0, 0, 0]"] ;
882 -> 883 ;
884 [label="gini = 0.0\nsamples = 1\nvalue = [0, 0, 0, 0, 0, 0, 0, 0, 0, 1, 0]"] ;
882 -> 884 ;
885 [label="gini = 0.0\nsamples = 7\nvalue = [0, 0, 0, 0, 0, 0, 0, 0, 0, 7, 0]"] ;
881 -> 885 ;
886 [label="gini = 0.0\nsamples = 1\nvalue = [1, 0, 0, 0, 0, 0, 0, 0, 0, 0, 0]"] ;
880 -> 886 ;
887 [label="X[51] <= 4.0\ngini = 0.48\nsamples = 5\nvalue = [0, 0, 3, 0, 0, 0, 0, 0, 0, 2, 0]"] ;
879 -> 887 ;
888 [label="gini = 0.0\nsamples = 3\nvalue = [0, 0, 3, 0, 0, 0, 0, 0, 0, 0, 0]"] ;
887 -> 888 ;
889 [label="gini = 0.0\nsamples = 2\nvalue = [0, 0, 0, 0, 0, 0, 0, 0, 0, 2, 0]"] ;
887 -> 889 ;
890 [label="X[53] <= 19.5\ngini = 0.7407\nsamples = 9\nvalue = [0, 1, 0, 0, 1, 0, 1, 0, 0, 3, 3]"] ;
878 -> 890 ;
891 [label="X[40] <= 0.5\ngini = 0.375\nsamples = 4\nvalue = [0, 0, 0, 0, 1, 0, 0, 0, 0, 0, 3]"] ;
890 -> 891 ;
892 [label="gini = 0.0\nsamples = 3\nvalue = [0, 0, 0, 0, 0, 0, 0, 0, 0, 0, 3]"] ;
891 -> 892 ;
893 [label="gini = 0.0\nsamples = 1\nvalue = [0, 0, 0, 0, 1, 0, 0, 0, 0, 0, 0]"] ;
891 -> 893 ;
894 [label="X[22] <= 2.5\ngini = 0.56\nsamples = 5\nvalue = [0, 1, 0, 0, 0, 0, 1, 0, 0, 3, 0]"] ;
890 -> 894 ;
895 [label="X[52] <= 4.0\ngini = 0.5\nsamples = 2\nvalue = [0, 1, 0, 0, 0, 0, 1, 0, 0, 0, 0]"] ;
894 -> 895 ;
896 [label="gini = 0.0\nsamples = 1\nvalue = [0, 1, 0, 0, 0, 0, 0, 0, 0, 0, 0]"] ;
895 -> 896 ;
897 [label="gini = 0.0\nsamples = 1\nvalue = [0, 0, 0, 0, 0, 0, 1, 0, 0, 0, 0]"] ;
895 -> 897 ;
898 [label="gini = 0.0\nsamples = 3\nvalue = [0, 0, 0, 0, 0, 0, 0, 0, 0, 3, 0]"] ;
894 -> 898 ;
}